{
  "state_dim": 12,
  "lr": 0.003,
  "gamma": 0.97,
  "entropy_coef": 0.015,
  "W": [
    [
      -0.04844578706919494,
      -0.46448199540921276,
      -0.008281719699332696,
      0.8314184957375341,
      0.04390957869248838,
      -0.1644529561833606,
      0.5068982706361127,
      0.20097987662853006,
      -0.17096454807976727,
      0.25704958040877257,
      -0.3219850182507049,
      -0.3629656329441151
    ],
    [
      0.04391050286936143,
      -0.8687121453419752,
      -0.28342876909324494,
      -0.05514135861154139,
      -0.24369656151195235,
      0.27154769012807944,
      -0.2298933242897256,
      -0.30675253543201253,
      0.5737528365093894,
      0.022548944497883465,
      0.2104501649398782,
      -0.21399871404124743
    ],
    [
      0.15598023314116022,
      0.6612807218476717,
      0.10055854099218786,
      -0.19379803716784996,
      -0.4552843077174646,
      0.24077098791710685,
      -0.017189848732047912,
      0.8913117858720374,
      0.05762611000507772,
      -0.31302915342275334,
      0.5665078116222471,
      -0.01830285948676299
    ]
  ],
  "b": [
    -0.24478413473619604,
    0.3464221687136222,
    0.5208419715906958
  ],
  "episode_count": 2000,
  "training_losses": [
    -0.16458156253099573,
    0.02654829230971248,
    -0.16578930089042102,
    0.003929501038939628,
    -0.1026708794367268,
    -0.07539133926906286,
    -0.03312737811797808,
    0.2328817141996442,
    -0.49615981214217175,
    -0.20394869855540665,
    -0.15065571466751765,
    -0.34872057498986136,
    -0.049124244305464915,
    0.014477732482648345,
    -0.06822131846561892,
    0.16823215861847274,
    0.012042441772406848,
    -0.09485664058564705,
    -0.04654960897895688,
    0.15530422495155438,
    -0.05228829301481277,
    -0.38934305214285186,
    -0.3125396263128289,
    0.1640766634360533,
    -0.25657843473744807,
    0.2770318888124557,
    -0.04228962149701265,
    -0.26132059133126556,
    -0.11724568810997274,
    0.08205811838004207,
    0.1415871473814943,
    0.25732185488739634,
    -0.11053815373512466,
    0.28829140042672163,
    -0.4246216079945208,
    -0.0219189507527905,
    0.1199869452738267,
    0.2221411394492496,
    0.1602588909655156,
    -0.12188193868862288,
    -0.07939593452144028,
    0.15499605433170865,
    -0.03245016716165959,
    0.07837139267754227,
    -0.05495578700074112,
    -0.1856610375089635,
    -0.19737748722162496,
    -0.196937494648131,
    0.019743147657268013,
    0.0907842923494138,
    0.13723407854197234,
    -0.21560982841405832,
    -0.036818826131220346,
    0.057374861889952805,
    0.03187092408577803,
    -0.11726359768731051,
    0.12976182505737385,
    0.025561901205436152,
    -0.16019981834709185,
    0.21352788583305474,
    -0.10441370034898254,
    -0.20673170369010324,
    -0.07521980358072455,
    0.01661788883649526,
    -0.3066416177700753,
    -0.02032751577186835,
    0.1967548067663584,
    0.024337112950890832,
    -0.010320477959166602,
    -0.18004566946947823,
    -0.2917007774424122,
    -0.2535287158763932,
    0.12177125431013841,
    0.00043263711141237893,
    -0.025922841725382492,
    0.2577917964296699,
    -0.046900780671966374,
    -0.3083808988298016,
    -0.1161302139793556,
    0.07303644919986269,
    0.02829877093122394,
    -0.0913768140029646,
    -0.03876906249159001,
    -0.06267469707547761,
    -0.03515701022539047,
    0.0027495853922867852,
    -0.03929659595873583,
    -0.2010195124991022,
    -0.26282074823102286,
    -0.30919033829030507,
    -0.06787259256784389,
    -0.05124567509430679,
    0.21999296217953684,
    -0.30834848790844904,
    -0.18393951146998805,
    -0.11544836293015413,
    -0.046894893190801555,
    0.04274822831302037,
    -0.054098346811270626,
    -0.3558473822759969,
    -0.18823150105655365,
    0.03416460039454494,
    -0.40143299114630054,
    0.0826665058970384,
    -0.3583069574234394,
    -0.11032616047995786,
    -0.07508478350200948,
    -0.3010850961142516,
    -0.13917530953194715,
    -0.02326890638931567,
    -0.4369545339325465,
    -0.08921080579401354,
    0.09689965235476089,
    -0.1439013422160807,
    0.07824290775196831,
    0.13191018056065507,
    -0.059700099241930815,
    -0.30793871837504483,
    -0.06769920313896183,
    -0.02684970697374603,
    0.003149865551103165,
    -0.014002196342896872,
    -0.026774165390513985,
    -0.20137782650097996,
    -0.1559584200311508,
    -0.10804341907708953,
    -0.1848640059962615,
    -0.012417940740316182,
    -0.044475821932707535,
    -0.2955541030162826,
    -0.0024889366740050156,
    -0.0947473586245853,
    0.04961605913659903,
    0.04383533963529208,
    0.05262143572050093,
    -0.027878695557034816,
    0.1725187510495015,
    -0.2537366289257367,
    0.03753411970181936,
    0.03091691753936715,
    0.07622101433785966,
    0.0276120118092492,
    -0.34099027944259175,
    -0.025972853968561298,
    -0.04762004095516856,
    0.3087121663218704,
    0.03618383268362854,
    -0.4842512925920498,
    -0.0005965901999943762,
    -0.10504400094666902,
    -0.11481403328361037,
    -0.025488465404135657,
    -0.09285216500387561,
    -0.012375520288540137,
    -0.1249402092330883,
    -0.13321829460138757,
    0.04379039630063393,
    -0.1512115391898834,
    -0.23274905914103772,
    -0.49998759991062647,
    -0.08204116523149553,
    0.03773416819174602,
    0.022189576568657082,
    0.11587755291575103,
    0.17324012632220623,
    -0.4346714003670959,
    -0.3975544575437051,
    -0.5120122936535714,
    0.08551412672487674,
    0.019052458553897644,
    -0.020646110375750287,
    -0.00496254580675741,
    -0.33087643089055774,
    -0.08706246872253823,
    -0.02402281784497068,
    -0.043310267216253764,
    -0.12369980657901031,
    -0.008883632958604504,
    -0.09587146132321897,
    -0.09308370907423069,
    -0.21604908025614053,
    -0.16971600651365915,
    0.038893858387730185,
    -0.5183689391575196,
    -0.19246730435581172,
    -0.19115272657467341,
    -0.07652553812735077,
    0.018359060263355903,
    -0.13325280481693835,
    -0.08783444144851024,
    0.003355956458416659,
    0.028937406118008477,
    -0.16217821348382166,
    -0.14616211547002805,
    -0.38627889829555767,
    0.06762086773901545,
    0.06993111619231951,
    -0.08753010288849418,
    -0.13062616303820054,
    0.11947399709655193,
    -0.145999052630549,
    -0.023939764590565633,
    -0.2315843208257331,
    -0.18872789977647472,
    -0.138865633056751,
    0.09080559036419328,
    -0.26139803436140957,
    -0.03566686747143809,
    -0.2861230578797328,
    -0.10559220077526636,
    -0.11078112888130595,
    -0.03588257835963414,
    -0.06231988664018159,
    -0.24087835108045738,
    -0.10312581872670784,
    -0.21586223383201633,
    -0.028155758094291508,
    -0.06751815214240721,
    -0.49733451126450634,
    -0.008339271987089253,
    -0.2000994669656879,
    -0.11430381917777187,
    -0.26874212737008807,
    -0.35816715850642716,
    0.023780928874675977,
    -0.3607204183674136,
    -0.003916255477564162,
    -0.19742520636555377,
    -0.4684670674830742,
    -0.09619245728005191,
    -0.2529534486098126,
    -0.23279115817621598,
    -0.3282467308449795,
    0.04306961926318509,
    -0.10390772673449529,
    -0.14373375856486797,
    -0.05650093194889852,
    -0.1546104113326094,
    -0.09505902835831156,
    -0.24456242563645866,
    -0.002989010079825438,
    -0.0585832895576842,
    -0.2262765405091546,
    -0.2396132460210228,
    -0.4247850834142809,
    -0.06773680822426828,
    -0.5619469510858015,
    -0.2266470126478055,
    -0.1572733488997244,
    -0.23243858498014908,
    -0.18543928425520464,
    -0.5798796911012066,
    -0.21912781174948345,
    -0.1393237111014311,
    -0.10638599703619378,
    -0.19093278161647853,
    -0.285544074727573,
    -0.3321770174202423,
    -0.2966608236723485,
    -0.24880594946614465,
    -0.026370432427291923,
    -0.6815776778692209,
    0.42819725124796254,
    -0.2109959545759612,
    -0.31723797534194476,
    -0.2916072049499383,
    0.05067127593194838,
    -0.030550643952166445,
    -0.0029277112044979042,
    -0.2257255507566663,
    -0.19763449290389729,
    -0.19543511878368455,
    0.07356115528778034,
    -0.07571924505693597,
    -0.16916312105861647,
    -0.04033611653250877,
    -0.11327549524607247,
    -0.21889606988892932,
    -0.10811392587415194,
    -0.1750452831173579,
    0.05535108611260427,
    -0.3980209036444006,
    -0.017448850382302594,
    -0.42136239039949225,
    -0.33667649516686493,
    -0.12493355361025796,
    -0.024506879739657733,
    -0.319106435498809,
    -0.24332825709131067,
    -0.22159665404412193,
    -0.36070859385533627,
    -0.1724309272622516,
    -0.06252976429035781,
    -0.3446176442462981,
    -0.16040113947031612,
    -0.373177836048102,
    -0.20491023688695564,
    -0.11600092013506932,
    -0.3548666292661984,
    -0.510042979322739,
    -0.05810638365627622,
    -0.2780070614851765,
    0.010101576502625765,
    0.10081216412191715,
    -0.0630628343674188,
    -0.27992594131330384,
    -0.14035995879532914,
    -0.03803283555163346,
    -0.2535939097079407,
    -0.15033986730739776,
    -0.6549825459102065,
    0.3116678729180987,
    -0.1767541305677922,
    -0.02102292824883706,
    0.028425854684928423,
    0.00899115573926594,
    -0.2940053422519862,
    -0.20071741620833772,
    -0.11364595274155811,
    -0.32499170869607463,
    -0.1144225763085775,
    -0.21872793702408957,
    -0.19870478501194766,
    -0.14486905985490964,
    0.0218878270617408,
    -0.08551573333901069,
    -0.07275807606048176,
    -0.10285048605636493,
    0.11669598540145135,
    -0.21564554242419268,
    -0.49986791663075014,
    -0.25365715447669523,
    -0.2077950151726145,
    -0.08286545242526488,
    0.023062879245019915,
    -0.5128784739479295,
    0.04049450309981884,
    -0.35463461881179376,
    0.14211691003678845,
    -0.20675681866449014,
    0.2002700961052827,
    0.05835428316602835,
    -0.20832943093395828,
    -0.2693443953086801,
    0.03788049238933034,
    -0.2306982067388542,
    -0.344674057946883,
    -0.08437648934802097,
    0.08108493074576183,
    0.49807743353192735,
    0.08721165144898481,
    0.012972987726783444,
    0.09301021452320782,
    -0.11710550151736081,
    0.038498818606921614,
    -0.04257371755575487,
    -0.34880176981938177,
    -0.03198013494415933,
    -0.08639752709948884,
    0.10262826947442355,
    -0.10585227922286164,
    -0.2955216489275978,
    -0.09025463031143702,
    0.14627760116224053,
    -0.22516291388980839,
    -0.11373416728555659,
    -0.009507946434569287,
    -0.44516434700105856,
    -0.07727396404939522,
    -0.28655334199687255,
    0.1770483044398038,
    -0.11306741981718849,
    -0.3920532790833081,
    -0.18756911637235213,
    -0.5634410824928672,
    -0.14942040492352954,
    -0.11987006769341496,
    -0.07086156508429314,
    -0.13503077833823987,
    -0.30456153466201286,
    -0.06270171948423131,
    -0.48873480984136863,
    -0.10956466643688859,
    -0.42737254516042633,
    -0.4977574561445666,
    -0.0741320560180379,
    -0.2748538643794008,
    -0.28737248198631743,
    0.07653013478060527,
    0.03895939460405795,
    -0.0763127602247888,
    -0.11895572248265202,
    -0.11908028004962432,
    0.09190671034532008,
    -0.11801713760466173,
    -0.11654299422821907,
    -0.42864119649876586,
    -0.1978929337205422,
    -0.09489936916781058,
    0.0388061751203779,
    -0.1878770716702905,
    -0.43054040266309235,
    -0.3091476251997019,
    -0.2706329453982595,
    -0.1541670344286371,
    -0.1347848412060458,
    -0.06321882492937864,
    -0.19935559601994124,
    -0.290123714666749,
    0.2312568229151225,
    0.23043507905921257,
    0.5028383123880076,
    0.061002354830464095,
    -0.17485098361526127,
    -0.04980668245299828,
    -0.034217496248532514,
    -0.08605341336314888,
    -0.09444891752352674,
    0.07176519393610895,
    -0.004084821737479774,
    0.10351049850182167,
    -0.13001787458276012,
    -0.4117873032265666,
    -0.22895569665589832,
    -0.001598581073796207,
    -0.5029155034204993,
    -0.011696825331407368,
    -0.18613364089911041,
    -0.15649464436571703,
    -0.1941935212528673,
    -0.2284851719637438,
    -0.4121177771454771,
    -0.07810882773353972,
    -0.22882320507840964,
    -0.27683768228422556,
    -0.15353653012305807,
    -0.2299293564042995,
    -0.3398776917728593,
    -0.13364123582022908,
    -0.04291691430185544,
    -0.3574076963872079,
    -0.3061432379254906,
    -0.29271472268437376,
    -0.3674603489807284,
    0.04275670280929801,
    -0.24637905663020543,
    -0.33744879656925486,
    -0.4695793863351406,
    -0.14421287313412134,
    -0.21726249669955328,
    0.18211361155296796,
    0.3351183082497107,
    -0.31150409311829774,
    -0.13712041485642654,
    -0.12057459045988236,
    -0.8336156222546887,
    -0.14947040346679297,
    -0.09995877838627312,
    0.37692702847038817,
    -0.11590582073136767,
    -0.3225072332432133,
    -0.5890967004021693,
    -0.1551036863206885,
    -0.38230513042485886,
    0.08655226662389515,
    -0.1120244441523487,
    -0.42865987894554075,
    0.014883900718723475,
    -0.08256051470664254,
    -0.4883062384586447,
    -0.049952801506333126,
    -0.37617525869007645,
    -0.4163322091066797,
    -0.6373165663724921,
    -0.2386641541668728,
    -0.5149317212947735,
    0.31418430492923205,
    -0.16409694809335995,
    -0.46251918715895934,
    -0.1119940874499733,
    -0.17579938186106386,
    -0.0031956747156148824,
    -0.6851884990803144,
    -0.6513091528616552,
    -0.3892970643002859,
    -0.1320360144019027,
    -0.14922264069666097,
    -0.1007911561887033,
    -0.41570791818609243,
    -0.07328865553638299,
    0.26231116569991725,
    -0.25839986216183086,
    -0.31154172146232073,
    -0.23386213071662124,
    -0.05282660515884237,
    -0.333412113893999,
    -0.05482883087062411,
    -0.6106916923754052,
    -0.369967188716877,
    -0.12018468182843572,
    -0.5457888825456377,
    -0.01894839858564145,
    -0.024459885927231168,
    -0.14953357168699602,
    0.3593439245464444,
    -0.035072301334308546,
    -0.686074254323144,
    -0.23099372137575844,
    -0.031834726968930145,
    -0.16931459299089952,
    0.07340535193927125,
    -0.07996884738921745,
    -0.7940645784272837,
    -0.6488080012354346,
    -0.5121542273951017,
    0.3422526109523515,
    -0.15015027209998033,
    -0.38783547090582243,
    0.16094994473418867,
    -0.23987447306846987,
    -0.2278332740831708,
    -0.05807757201066599,
    -0.07674225592241256,
    -0.08971266923825387,
    -0.24080103957404392,
    0.05424520486940546,
    -0.40145309849459754,
    -0.1611424653294061,
    -0.3220684178944497,
    0.09728049393275964,
    -0.18962137564625886,
    -0.18289956131615984,
    -0.020739048938953064,
    -0.3229812295721321,
    -0.7687428048515788,
    -0.2775327209933513,
    -0.11165223366463199,
    -0.04395808878752602,
    -0.2737373214066788,
    -0.16776719108747362,
    -0.19281381905979064,
    -0.13057430703783818,
    0.22219230761639358,
    -0.2069527414286476,
    0.20550734311373728,
    -0.38254901256603546,
    -0.671017415366801,
    0.4966487269174439,
    -0.8363322780030863,
    -0.2946428364596796,
    -0.3133058755199745,
    0.01598359464085615,
    -0.7084552617919488,
    -0.17407172700083912,
    -0.19733668765526988,
    -0.858238050444992,
    0.15737013013567996,
    0.08517941984666687,
    -0.0544398658355741,
    -0.041823637605202454,
    -0.2344655152453413,
    -0.4598430178463038,
    0.4633145640599531,
    -0.007664586264324598,
    -0.059741169507641315,
    -0.5130221690850724,
    0.43532138222061145,
    0.034660673788085974,
    -0.059667846478258416,
    -0.5420059089953323,
    0.24116599961075175,
    -0.050413897347586986,
    -0.46352896460795445,
    -0.44429125359921623,
    -0.036522584387675944,
    0.06250880609512954,
    -0.279115933431086,
    -0.13583381096673897,
    -0.09025334157945375,
    -0.5146996566368338,
    0.5579230473280242,
    0.0731245375805493,
    -0.29196646581480246,
    -0.5476601003326205,
    -0.056648806297933826,
    0.3906334816668472,
    0.31356233961608176,
    -0.09773072562039742,
    -0.26503004817308684,
    -0.5345541939628662,
    -0.29692483216662285,
    -0.6552699253620415,
    0.17680369230594217,
    -0.5459243644637631,
    -0.14659209705559434,
    -0.005359652897967915,
    0.07894592453981096,
    0.2706398318409052,
    -0.4632764670777381,
    -0.4263735818881371,
    -0.43242713197896937,
    -0.16458816816466243,
    -0.5876164941035292,
    -0.059366267908851335,
    0.291053043165962,
    0.2107413608917438,
    -0.13961576627049024,
    0.014861169316470801,
    -0.33445097360013043,
    -0.4082642734018069,
    -0.13647846954371248,
    -0.4186819288142787,
    -0.43522809079133407,
    -0.16297452919362126,
    -0.8731360684107625,
    -0.4956712194746253,
    -0.2789663669726043,
    -0.2084334847511668,
    0.43083377969922315,
    0.19648193775241432,
    0.007523703443538053,
    -0.07916504198134561,
    -0.3440387284887207,
    0.21900347803595793,
    -0.09081962574307324,
    0.04112677398507569,
    0.07652366396534768,
    -0.22967937557761064,
    -0.1279300892413601,
    -0.44982855882293826,
    0.23063207102450137,
    -0.1602241199769543,
    -0.1601793561248385,
    -0.25370257801397617,
    -0.02483404996245655,
    0.021550254520981624,
    -0.5031701382045519,
    -0.0788402663296737,
    -0.6149751757103142,
    -0.3793546545807278,
    -0.054641726904289756,
    0.2869510595992185,
    0.26323280619066425,
    -0.18587012754664425,
    -0.16662436578947232,
    -0.1995944160736782,
    -0.09822091499016322,
    0.11563790040879497,
    -0.630723466049165,
    0.18474141842538555,
    0.12458754302050111,
    -0.015287886831716606,
    -0.11725201610526864,
    -0.12707857821916102,
    -0.32077898604752886,
    -0.7106036102308351,
    -0.12200869698228703,
    -0.38524564595189253,
    -0.3783634842948611,
    -0.26956800219286675,
    -0.35111611410240495,
    -0.5165812705239575,
    -0.255348340013659,
    -0.24719875874979297,
    -0.25908183009339203,
    0.3385022993150624,
    -0.27816610790261154,
    -0.26936107203998083,
    -0.10953922671995212,
    0.31708055659338297,
    0.1591026935914474,
    -0.13895667875761078,
    -0.6220188770379218,
    -0.6763352002506108,
    -0.322163426786148,
    -0.1451628903789549,
    -0.4585251776418774,
    -0.33357269080482804,
    -0.07319509836237337,
    -0.3802819785983849,
    -0.05613307587598708,
    -0.33190970269558084,
    0.05806834010599213,
    -0.07000018197567626,
    0.27649957858698754,
    -0.2069000034786036,
    0.07415710360045755,
    -0.04661192444791026,
    -0.2494818945110932,
    0.15589865371166864,
    -0.22870243668539172,
    0.12366505111528885,
    -0.24614837608469153,
    0.3138786695189183,
    -0.4725162360665997,
    0.043105198810559436,
    0.30581375024417246,
    0.06659124040454922,
    0.16813491228598287,
    -0.12382940515168572,
    -0.20672840331836453,
    -0.2429921366601039,
    0.06683265394748963,
    -0.5083274434962828,
    -0.15776192097989686,
    -0.5726242306889977,
    0.1306724650615332,
    0.26202536157887485,
    -0.062012317264228456,
    -0.5077472126073097,
    -0.04668195220865084,
    -0.4395262701345771,
    0.10975959004692828,
    -0.6130215325045126,
    -0.19797104693804235,
    0.10864125553783789,
    -0.1520837531127987,
    -0.1222371125908217,
    -0.13113601774260147,
    -0.315145922832306,
    0.32386048488716174,
    -0.32825324082783314,
    -0.6161158157229557,
    -0.23863217423747,
    0.012227359270224059,
    -0.10191450275704689,
    -0.23869762161133393,
    0.25978384814385586,
    0.046251298682599966,
    -0.26647442673043664,
    0.4365001030040457,
    0.049958233949213365,
    -0.18443590519164338,
    0.0623626776715305,
    0.4222035137141806,
    -0.1737885354025444,
    -0.2668276691753446,
    0.05221320912563067,
    -0.23251556604857976,
    -0.1237097380646699,
    0.08402158108452665,
    -0.31915545710121784,
    0.027326549923819943,
    -0.10460705259256924,
    -0.07628444726234437,
    -0.07131407237367321,
    -0.1461944712767026,
    -0.1560611944287341,
    -0.14022708771398684,
    0.1988233062509203,
    -0.3568408941168174,
    0.23287396339236272,
    -0.0986319420661542,
    0.10436506973211385,
    -0.30139380828939155,
    0.03310633190765748,
    -0.4584491797034741,
    0.023669560791169664,
    -0.1879108398446358,
    0.0015981392586393306,
    0.07595768482952502,
    -0.0674369846863065,
    -0.16583783155223022,
    0.2680069597101425,
    0.015549792605900503,
    -0.26465764833453675,
    0.31003697073877157,
    -0.026221804856974652,
    -0.12519449661899268,
    -0.23822573251696857,
    -0.2527202433579185,
    0.20754135905565313,
    0.1778454174709811,
    -0.4736075614399441,
    -0.21037682045833458,
    0.02421896923762608,
    -0.08160359840933032,
    -0.30778302721257994,
    0.08226414972398252,
    0.30489024208218585,
    -0.07578871543369979,
    -0.35720056040952186,
    -0.16749958167220377,
    -0.04593177072608404,
    -0.0868907859735842,
    0.06378911521131937,
    -0.26510600358963016,
    -0.1669486576680329,
    0.30121808837172825,
    -0.39865357667846446,
    -0.0711119469832333,
    0.33641043115066405,
    0.051251819786339456,
    0.08858041497002889,
    -0.0003065656164196115,
    -0.25651797559950545,
    0.0177285650536363,
    0.0751980835017268,
    -0.12479408492898536,
    -0.18831644280336102,
    -0.01695216559284654,
    0.011101834764682572,
    -0.12153344907730082,
    -0.32812926499021733,
    -0.4122266120599661,
    0.10305162119616276,
    0.20754416718153068,
    0.20364768125418506,
    0.030869189654146097,
    -0.4856302032257548,
    -0.15253018292061465,
    -0.03914844023122174,
    -0.14605893105061865,
    0.07448217291922987,
    -0.08559219660252049,
    -0.1593563797784564,
    -0.36750536924359944,
    -0.05246540624520327,
    -0.2345981986584778,
    0.11071206180881983,
    -0.11636394005124187,
    -0.11558770952351217,
    -0.28700798750787415,
    -0.29287275614850433,
    -0.36519040242105605,
    0.022275685754772317,
    -0.19489642271063176,
    -0.1423521704041488,
    -0.33016845807734446,
    -0.2521346790604433,
    0.024399642584480158,
    -0.1474242088290057,
    -0.24065051242441554,
    0.14357598324000292,
    -0.23379307686979395,
    0.04408400230188332,
    -0.02171046030205304,
    -0.19481952482875187,
    0.010637452684194887,
    -0.420537062337978,
    0.018706133161520977,
    -0.3847901093019462,
    -0.4589652568501081,
    -0.30217930306928575,
    -0.17536357904448557,
    0.25658092027880824,
    -0.18333636797113595,
    -0.20067801426734228,
    -0.21476857754915324,
    -0.3289392894100651,
    -0.16439230955662243,
    -0.10855768411226197,
    -0.35147101048467744,
    -0.24653226596956482,
    -0.2083407796106322,
    -0.12262744997785716,
    -0.6732950471611164,
    -0.08243311685836141,
    0.07030590942530882,
    -0.26889831108417506,
    -0.4049765333650206,
    -0.0747890295994266,
    -0.0995222608231933,
    0.3483917933923393,
    -0.01790690590429833,
    -0.19110289639252062,
    0.06407716336300717,
    -0.231570708465208,
    -0.009838690254665716,
    0.24702092910313805,
    -0.5233168024069101,
    0.10607311153884262,
    -0.33591007920284877,
    0.002634111249280542,
    0.005659250348706013,
    -0.34755126123289054,
    -0.1845199645275859,
    -0.35638568064212983,
    -0.09143065080406484,
    -0.09845440817874579,
    -0.24359137737485226,
    -0.11502767907799785,
    -0.10075807437518666,
    -0.17834564180286488,
    -0.18155618187729972,
    -0.1257750787401714,
    0.005058781027031889,
    -0.06275490237270816,
    0.313310135728169,
    0.04883352742876773,
    -0.14278141124086258,
    0.38153140296398275,
    0.22000292420989162,
    -0.1412851933306603,
    -0.3948505169229806,
    -0.024507148820602176,
    -0.021093743880322147,
    0.02057380968148706,
    -0.2619982646938234,
    0.03814066189159421,
    -0.088894196066612,
    -0.023506710152935817,
    -0.19410461275762797,
    0.028386474789124726,
    -0.015390918824565919,
    0.09163299122969995,
    0.034980688332122555,
    -0.16164571654118712,
    0.05892393458885156,
    -0.0345013186030667,
    0.06826692463973183,
    -0.4290487004492836,
    -0.1692991253544865,
    -0.15989637090572748,
    -0.1739411757472686,
    -0.39043600520537924,
    -0.08653703776969754,
    -0.07303674761790177,
    -0.26238125896553255,
    -0.1832382949131035,
    0.058746580973818574,
    0.01947288141304303,
    -0.2424452126971344,
    -0.048190064569840124,
    0.06116911360483851,
    -0.2223584338549131,
    -0.012082906600245275,
    -0.16040697490647227,
    -0.2608332846319138,
    -0.46427485361081183,
    -0.11980416612612428,
    -0.23168938280761642,
    -0.07145557087971749,
    -0.2497567774466155,
    -0.42499204677027325,
    0.02165338791464592,
    -0.1543395484641054,
    -0.33901312836407554,
    -0.13780782229531074,
    -0.2119362030906185,
    -0.14615882635231242,
    -0.2377284050703934,
    -0.3763825407080887,
    -0.21244910118252622,
    0.0631093572086115,
    -0.04622266452634977,
    -0.19023437411867677,
    -0.3039538159036484,
    -0.27174169648931,
    -0.709757762749704,
    0.01947362678113279,
    -0.03245982194321462,
    -0.34398066542777195,
    0.1416200440023627,
    0.05461627961069948,
    -0.4496929961054868,
    -0.21226213706343122,
    -0.2933544153905524,
    0.10732866117891987,
    -0.24988687831584508,
    -0.19610661859060805,
    0.06533931538914561,
    -0.3377688165732988,
    0.010688236599559447,
    -0.452089900180629,
    0.13541198282383318,
    -0.0424651459446018,
    -0.19367425283912063,
    -0.2128283139160173,
    0.0794576121984899,
    -0.5920340085095757,
    -0.3558178773274959,
    -0.03433597085896553,
    0.02311080578699143,
    0.24854906160285417,
    -0.16096352725973767,
    -0.24617042024774505,
    -0.10487623937637891,
    -0.14243953008855328,
    -0.3206205327810545,
    -0.4486842547992528,
    -0.13762465789183964,
    -0.10964877122247162,
    -0.06266117134125598,
    -0.1844928822342819,
    0.07768772446111966,
    -0.040534805048291864,
    -0.1247706859278504,
    -0.06472268950343853,
    -0.12215191157003327,
    0.00016708615442166674,
    -0.2089593358287004,
    -0.0634379203203517,
    -0.3808186254141705,
    -0.16272993617594464,
    0.1525092220507168,
    0.3397023178811611,
    -0.12744592100738744,
    0.07461085500105137,
    -0.20974966138141904,
    0.02524827082101136,
    -0.11085041050652757,
    -0.11491755352530364,
    -0.1586035549449927,
    -0.3778274388656702,
    -0.07956170471661383,
    -0.22493970493456744,
    0.07746453297067853,
    -0.2048293466328011,
    -0.21154115316575994,
    -0.248986519424779,
    -0.3926526038975269,
    -0.17295217486291709,
    -0.14364749646104852,
    -0.13553725098274583,
    -0.12018098891024093,
    0.30375242664035546,
    -0.053490050376948595,
    -0.12217595864573014,
    0.05189757875541917,
    0.05830682579163566,
    0.08192313144992908,
    -0.11981753127048349,
    -0.19914622027580903,
    -0.05998024621541499,
    -0.2769852760220489,
    -0.29024763799356673,
    -0.01823761998566445,
    -0.24028047297179064,
    -0.22376391598705972,
    -0.14727217926000827,
    0.04040041613986306,
    0.08143591642419051,
    0.004578928642504521,
    -0.10725979257729192,
    -0.14732642083465294,
    -0.14867067701585232,
    0.14093519668846613,
    -0.25092687863588425,
    -0.35142191255308036,
    -0.08635690270486678,
    -0.2998756633282244,
    0.06458383478477403,
    -0.09085492411394416,
    -0.5812506655245528,
    -0.2034560374817147,
    -0.1891596517564323,
    0.03201685759759904,
    -0.17795823602410932,
    -0.44500961737171224,
    -0.24668339547581147,
    -0.17038097021214244,
    0.07831302088733809,
    -0.10152203715466118,
    -0.2873792715602397,
    -0.05016814465631369,
    0.002793645541705081,
    -0.2392579700558201,
    -0.17832789792648576,
    -0.46002700155832904,
    -0.3657425841653182,
    0.13724119051036604,
    -0.29526981313293726,
    -0.1751187432952474,
    0.12679711002308253,
    -0.3352496545712723,
    0.2785923030820211,
    -0.16199325702468342,
    -0.05250241656863264,
    -0.05398590573011597,
    -0.25236418569082236,
    -0.14685164321550442,
    -0.14525046651393606,
    0.038026215557871085,
    0.05581836902230805,
    -0.19022318589582732,
    -0.40956669843333027,
    -0.37888116970123675,
    -0.5037903189209374,
    -0.1410848241867572,
    -0.4070265248730529,
    0.28211519147287095,
    -0.15454992309855808,
    0.045104196714519,
    -0.06092334629195867,
    -0.5690968390425176,
    -0.1961579369854201,
    -0.07917334989422484,
    -0.3405053361374791,
    -0.43849289145520637,
    -0.5275702509100499,
    -0.19929976355043869,
    0.06363438483232511,
    -0.006915813982690221,
    -0.08843434318517539,
    0.04861223149039362,
    0.2528101928632078,
    -0.0937582825073259,
    -0.16545939621494835,
    -0.19975729939621745,
    -0.194383733269393,
    0.21823731134001115,
    0.01060568341332474,
    -0.20243566643707978,
    -0.22896827435545938,
    -0.14155991195586687,
    -0.0980396257643917,
    -0.2495013820859186,
    -0.28979168038795444,
    -0.2522289103666999,
    0.02793094619188538,
    -0.27649246765256913,
    -0.036602875782658556,
    -0.11908670632120168,
    -0.04744560114650925,
    -0.13125367149685988,
    -0.15462309802490976,
    -0.4250730700286006,
    -0.37023447846214685,
    -0.2893789737956035,
    -0.2998074866851402,
    -0.13593364326050975,
    -0.1590126930266708,
    -0.3227686307817774,
    -0.28447006864134844,
    -0.5281194365516215,
    -0.19750619049236595,
    -0.3017718182487275,
    -0.14643401710922363,
    0.06382439201186163,
    -0.15039236771489248,
    -0.3601630916959674,
    -0.18158859451973272,
    -0.11557028830978161,
    -0.03870528421040126,
    0.14547994107984769,
    -0.16991692768984268,
    -0.2124503251447567,
    -0.34034559944782944,
    -0.22623922193285773,
    -0.32318350839164345,
    -0.14224528574640494,
    -0.30156686163459984,
    -0.469186390436508,
    -0.11653060801508675,
    -0.22578483446534064,
    -0.11166746812918765,
    -0.3806023412914554,
    -0.016994559959218836,
    0.06859289170763092,
    -0.235893944266307,
    -0.031128226250406926,
    0.021035609333572874,
    -0.262219687315528,
    -0.2373621503451112,
    -0.09619879485842694,
    0.03943441768060714,
    -0.13121074344633146,
    -0.1293351349323108,
    0.05734941623941947,
    -0.47017097846435496,
    -0.14259367448523436,
    -0.08697413833175688,
    -0.3734717144583055,
    -0.2161797963673501,
    0.0907976136303846,
    0.16944476936366154,
    -0.16589285581858504,
    0.00242588941616724,
    -0.29209839313522673,
    -0.20338474732926146,
    -0.046097350461976855,
    -0.020009246685109255,
    -0.1283228036252906,
    -0.046480335046030545,
    0.07547799268505653,
    -0.16640277567185222,
    -0.11295331127338104,
    -0.03674739669349753,
    -0.10880102816498863,
    -0.1974171110115659,
    0.018561557376837123,
    -0.322384664188766,
    -0.11637151216586339,
    -0.1531844815187608,
    -0.03774250616081108,
    -0.09066823392146567,
    -0.20692482033779316,
    -0.32096909136692287,
    -0.17165989803453713,
    -0.18388993709036772,
    -0.29927063720439545,
    0.10054632870110049,
    -0.34246607901225673,
    -0.04226165810463284,
    -0.17501040895222292,
    -0.2102242256363233,
    -0.12777346013034396,
    -0.018148706442524212,
    -0.1501733160964227,
    0.09241039837828185,
    0.04857888647180386,
    -0.11386410989532228,
    -0.05613990763753199,
    -0.0802664373360121,
    -0.26056535844187123,
    -0.23327324887696935,
    -0.11344951708632899,
    -0.24100298802691372,
    -0.12110354254680977,
    -0.0738771756902109,
    0.03118120944520328,
    -0.2932751644929234,
    -0.09761359038592617,
    -0.1308483261935488,
    -0.18522362303116635,
    0.21332127122001587,
    -0.012414079907573015,
    -0.2894234824350014,
    -0.36670865447265977,
    -0.10757527767730923,
    -0.230799952374338,
    -0.26177517139248296,
    -0.14825132163819899,
    -0.08800619550926655,
    -0.06819898651309128,
    -0.076624839107573,
    -0.12825363029530137,
    -0.0792298979123302,
    -0.262776517809503,
    -0.24325412992955836,
    -0.08909211842129991,
    -0.17066455936881064,
    -0.04002930423872961,
    -0.2008116649350077,
    -0.14649763901125396,
    -0.005673520888451411,
    -0.16667406724042816,
    -0.11829740824283802,
    0.14081564547181935,
    -0.05600496377549245,
    -0.1721758190247156,
    -0.09752242241520667,
    -0.09218833054410538,
    -0.09165021935396389,
    -0.12562979384924955,
    -2.3096552452230024e-05,
    0.09953328621600033,
    -0.09682189277907982,
    -0.12808201555655524,
    -0.30875497065895424,
    -0.14281099205162776,
    -0.10126146423286606,
    -0.06414554558678484,
    -0.18050344872643484,
    -0.24222317222446685,
    -0.2361937355032908,
    -0.2172571620221343,
    -0.05218708056466803,
    -0.2986645169901918,
    -0.198432735427114,
    -0.3013673573435437,
    -0.38040973123021427,
    -0.35645322472768237,
    -0.3137633966749689,
    -0.20805559659361333,
    -0.27391298017082955,
    -0.17679843398564074,
    -0.2328124525289113,
    -0.24644935265820012,
    -0.2390650952337106,
    -0.147519913269384,
    -0.18123177220310424,
    -0.32603238958490566,
    -0.158427005953417,
    -0.23302669458052547,
    -0.2530857723793174,
    -0.2089231262795582,
    -0.25378523503395567,
    -0.26319609897455404,
    -0.4512548262409838,
    -0.23059898777494756,
    -0.15339263061459038,
    -0.2515581788205381,
    -0.31246322774276236,
    -0.19149662461477512,
    -0.2737312929141038,
    -0.19150004028173367,
    -0.22651375696336512,
    -0.3587434928971079,
    -0.09855143310595349,
    0.05431053676385747,
    -0.10389590230224716,
    -0.12341341964773192,
    -0.051467111466728846,
    -0.28150569548473875,
    -0.17522418148023394,
    -0.46762340303085914,
    -0.3826111100771053,
    -0.13136883845513125,
    -0.2830567572701372,
    -0.2540421746156085,
    -0.1149080404770658,
    -0.26723762416708585,
    -0.20448323612382174,
    -0.08404189896102178,
    -0.15852180515673978,
    -0.41051718121840575,
    0.01825645138815668,
    -0.43353092378749136,
    -0.27463379793640963,
    -0.16707386045272785,
    -0.05399429872280637,
    -0.01170110033687305,
    -0.1678672150939212,
    -0.09117965622465418,
    -0.14361431609694483,
    -0.13559972372810417,
    -0.09902320428170769,
    0.0050209843777338364,
    -0.2159367039133041,
    -0.12779795165850316,
    -0.24242906527896407,
    -0.21155470469723384,
    -0.23081128862852504,
    -0.23387471443532434,
    -0.1435552814306717,
    -0.03466493198454798,
    -0.20733151748374312,
    -0.23547123863675723,
    -0.2001814494643023,
    -0.24249260595813463,
    0.04794148819337286,
    -0.10136158760229085,
    0.12715223136973092,
    -0.010654310913996726,
    -0.15247162833125694,
    -0.05396425553563438,
    -0.20400831746403147,
    -0.16460518024140122,
    -0.2122926893495054,
    0.0379523331786015,
    -0.14908220416103304,
    -0.038457400491871865,
    -0.295185693939626,
    0.010202024708017746,
    -0.22377158811156186,
    -0.13898564577677716,
    -0.12461832895567558,
    -0.14751487872520522,
    -0.21068137071138757,
    -0.20115823134583924,
    -0.10606324593275565,
    -0.3206225806463092,
    -0.21440296138081033,
    -0.2780841185055509,
    -0.20109308507381607,
    -0.21715947023364157,
    -0.25634118455487315,
    -0.13811203901876312,
    0.1660146089345778,
    -0.22554915577569312,
    0.046131519739125326,
    -0.016273490625628384,
    -0.26064190979923724,
    -0.15888509070710033,
    -0.3209471347598733,
    -0.1551223472603146,
    -0.42033617245197963,
    -0.09004247469162885,
    -0.045043657602443,
    -0.15020913247962325,
    -0.13190241617911236,
    -0.3138104527836132,
    -0.014480250653662485,
    -0.02363184994972356,
    -0.028597672494537284,
    -0.21401550604915184,
    -0.094248449993871,
    0.002451962375678962,
    -0.15402990553872442,
    -0.26337145309864446,
    -0.09093625133674932,
    -0.138663957811792,
    -0.1306118696852961,
    -0.11667474617083295,
    -0.09739363734683654,
    -0.258483488560247,
    0.009262997442522417,
    -0.26105819423639914,
    -0.25121548781904335,
    -0.19968030284609745,
    -0.08108560709884656,
    0.1967737841502461,
    -0.15970994375669972,
    -0.019936435749174475,
    -0.14119722223509867,
    -0.0552192418011489,
    -0.10258656361056787,
    -0.11926854951986524,
    -0.2980948406688181,
    -0.08407156652038938,
    -0.03680936403883743,
    0.1967970883787761,
    0.04279250370402686,
    -0.07014498111847228,
    0.009706628837598423,
    -0.3048430749867174,
    -0.012222706802171204,
    -0.05852742469925089,
    -0.18568309011428824,
    -0.004622179131753362,
    -0.18543062412570932,
    -0.12911666195465404,
    -0.3455119483732597,
    -0.33580558254043824,
    -0.16799381062738553,
    -0.09170928309540247,
    -0.05551996003613499,
    0.05284645832407911,
    -0.05122828688650849,
    -0.2958323837006085,
    -0.09540286134104979,
    -0.17996032694008302,
    -0.16482772138654858,
    -0.06637034023906255,
    -0.1546111112233064,
    0.02235796901012192,
    -0.20636546114771254,
    -0.31220472305599734,
    -0.12859474955391798,
    -0.3384195191735043,
    0.0023554927710990603,
    -0.04585489607765941,
    -0.2871301924128634,
    -0.1491507469853438,
    -0.30157423789773463,
    -0.13875215251588788,
    -0.13445352315965334,
    -0.20978045733399625,
    -0.2026761824053348,
    -0.1783209053337622,
    -0.17655851126245917,
    -0.12889475593840605,
    -0.19595196830467296,
    -0.2734212292119095,
    -0.265127176016841,
    -0.007218692611209797,
    -0.1209117917966325,
    -0.10509627060922164,
    -0.15159716210174773,
    -0.06925757276679206,
    -0.1156100536272465,
    -0.24421394691473788,
    -0.188864095150881,
    -0.1754832666642721,
    -0.052848410624840525,
    -0.00023120067920476273,
    0.11119863091082055,
    -0.11438960978518531,
    -0.2520932808167798,
    -0.30221867206828446,
    -0.10820372060717541,
    -0.30095965109016687,
    -0.10011698577848988,
    -0.1900625517705421,
    -0.036045460702403,
    -0.24646501476822924,
    -0.12111205355939153,
    -0.21726650127687294,
    -0.04367433088525723,
    -0.38161802797242694,
    -0.1652590120941545,
    -0.3238846792474527,
    -0.1069961283554452,
    -0.17188173158065911,
    -0.08454513531785375,
    -0.08997682797789755,
    -0.1811369280333961,
    -0.18612911629341386,
    -0.10828315257289085,
    -0.009086260733868895,
    -0.11803483425478835,
    0.0052572382166716225,
    -0.06447593843497519,
    -0.34191870520158557,
    -0.1277245652555602,
    0.1983448975317513,
    -0.06974443835637478,
    0.07334072591573726,
    -0.28562360582983215,
    -0.04631544524155949,
    -0.24635306551894026,
    -0.031252226431610436,
    -0.17809318155938994,
    -0.1379376543278777,
    -0.2757759795954509,
    -0.07505375519150201,
    -0.029904736137904973,
    -0.04527629039611006,
    -0.0012905895659781619,
    -0.20865435848242997,
    -0.022405895839244412,
    -0.1471087159354305,
    -0.214422818827181,
    -0.0103369437091657,
    -0.17982733430045583,
    0.015288657199359929,
    -0.08836524386478346,
    -0.3305639166892043,
    0.041068089338446884,
    -0.08963097378456902,
    -0.1174360266081127,
    0.09482856689010413,
    -0.09186630432474084,
    -0.13040965004133653,
    -0.17687956574813238,
    -0.09673961715770078,
    -0.0032503239824591967,
    -0.24879727431654097,
    -0.15614327094603675,
    -0.17579117588595636,
    0.13892312460261902,
    -0.17118274803491546,
    -0.10734385336496406,
    -0.1815420697341502,
    -0.30410964516279887,
    -0.4146613887482531,
    -0.1717271072234859,
    -0.3841330848008834,
    -0.292176302337533,
    -0.1396877346876561,
    -0.046704754265714354,
    -0.3798761928447803,
    -0.304281384634019,
    0.042399622404632936,
    -0.17808841933697325,
    -0.3989613738561757,
    -0.012155557260138115,
    -0.0007206603971128545,
    -0.18360827445930578,
    -0.033711489204668904,
    -0.015170664051280702,
    -0.15274002035387949,
    -0.2897665940815861,
    -0.2053165854286762,
    -0.04415489644771238,
    -0.39098845494046675,
    -0.34382048120428454,
    0.036064482967180796,
    -0.28533985926626915,
    -0.2978577442084995,
    -0.09547687518719172,
    0.055940706942015285,
    -0.2615544293170071,
    -0.14242580815841446,
    -0.011951274937448346,
    -0.3719465217297298,
    -0.3766929729318413,
    -0.25003375066975836,
    -0.16140600069488095,
    -0.17183982844229184,
    -0.11774701126356021,
    -0.14718631401781712,
    -0.32869625293978433,
    -0.45797491139255575,
    -0.014242224808233228,
    -0.21937945187966,
    -0.03140876716622669,
    -0.34945111473280144,
    -0.011590736671253113,
    -0.23227495834907239,
    -0.06817224013310541,
    -0.038523160700031894,
    0.06617636489310916,
    -0.13304277751116042,
    -0.08168480907044158,
    -0.3898010974627948,
    -0.24422827947114187,
    -0.3310890107150158,
    -0.049753801667196645,
    -0.45293958675533674,
    -0.008984453323348629,
    0.04317622017670342,
    -0.26222491081533783,
    -0.18419828105424246,
    -0.4923854036134109,
    -0.16551303221685082,
    -0.24324190877137958,
    -0.01393629876497704,
    -0.25094993977446634,
    -0.1983285084703739,
    0.02455394164879665,
    -0.12603439865207258,
    -0.29824669088144956,
    0.271559087309189,
    -0.14168400302322404,
    -0.20412728010812284,
    -0.1604338374193016,
    -0.011189364773556532,
    -0.32084272299761574,
    -0.332157776762586,
    -0.4654663306592083,
    -0.3264598319354708,
    -0.3912291163447175,
    -0.3601657149600422,
    -0.37808965091442986,
    -0.015671180636206483,
    -0.20245870779073077,
    -0.4708499736074726,
    -0.42894487234810663,
    0.12128032800943106,
    -0.2781045443878443,
    -0.19165749028400048,
    0.05944664149839779,
    0.03256396024253026,
    -0.1535163570534131,
    -0.18350851293323092,
    -0.20692703639775473,
    -0.3995194491428686,
    -0.30338853149909184,
    -0.0410027025528107,
    0.15151540372760391,
    -0.12549505482318093,
    -0.06569082886428876,
    -0.10533705676490719,
    -0.201436283758772,
    -0.609676698973104,
    0.03885440297015619,
    -0.43719614267653717,
    -0.06815566442094867,
    -0.4768283762509972,
    -0.15784321604036358,
    -0.41686889887205014,
    -0.08241869203295815,
    -0.3378948991260855,
    -0.23734367310879223,
    -0.19912790534959293,
    -0.14052913683398907,
    -0.27981732397112297,
    -0.4507524437204504,
    -0.42875265139165464,
    -0.5772726139223897,
    -0.09384859476066626,
    -0.31603505167228596,
    -0.009762847189343338,
    -0.12019859704741821,
    -0.046898157326444465,
    -0.2007619208991165,
    -0.0786921294075899,
    -0.21361809645484678,
    -0.24387606665006403,
    -0.20538733593493969,
    -0.15162365642478565,
    -0.2499141207359925,
    0.09066208303773028,
    -0.23953671191625445,
    -0.2131287251967156,
    -0.17022439220413876,
    -0.20859553678613374,
    -0.32224545029767393,
    -0.06001279374271748,
    -0.044317494896795914,
    -0.25815781705138713,
    -0.3530993937981684,
    -0.08855430807385295,
    0.08907821976200053,
    -0.3072612462174171,
    -0.19541614111880962,
    -0.35521527913088324,
    -0.011167526403410774,
    -0.13437646500761224,
    0.08783859900266328,
    0.16075913874706987,
    0.09477868705529584,
    -0.18885641101667422,
    -0.0684281853285589,
    -0.2330959657067163,
    -0.42675896587535467,
    -0.2693186199651793,
    -0.1932906640077644,
    -0.23670197813210841,
    -0.15512936197511715,
    -0.46812673111127767,
    -0.19205582713513397,
    -0.02754014062909363,
    -0.12393646035255147,
    0.2308853038801783,
    -0.0476467868848394,
    -0.3025691769556846,
    -0.6101375758320933,
    -0.15339647625606198,
    -0.34570860141904086,
    -0.33385766884406454,
    -0.22238176065994658,
    0.16028455263784386,
    -0.17103185533744342,
    -0.48806518679721533,
    0.06945794770772326,
    -0.21041367561895336,
    -0.045994183751455864,
    0.11980596128355286,
    -0.0032299182817996097,
    0.013177942369691692,
    -0.11760720012161369,
    -0.25701878562244507,
    -0.3186706355794735,
    -0.14795499884247454,
    -0.20650599522370794,
    -0.24091431711357053,
    -0.1600812195762058,
    -0.4147634984290058,
    -0.5061754667150964,
    -0.36593676398305525,
    0.030433951945896154,
    -0.10412373677640616,
    -0.2394291251719997,
    -0.26295747576327677,
    0.28992925022197125,
    -0.16872321583788688,
    -0.18286178686744206,
    -0.2514818747041133,
    -0.15209381272607664,
    0.19404074130531046,
    0.07039501193283396,
    -0.2114392546953002,
    -0.15914515235849108,
    -0.06703314734507315,
    -0.31631814865938945,
    -0.35151063496511664,
    -0.009908764666573727,
    -0.3047971781644808,
    -0.36739084290704466,
    -0.2710786957452761,
    -0.04812880526168965,
    -0.1802882910085759,
    -0.26311983459695293,
    -0.025480525673112375,
    -0.2715508959430881,
    -0.16545824388462277,
    -0.3396426581113574,
    -0.2383179468520396,
    -0.15751104729263898,
    0.19667726033917202,
    -0.03489904149221419,
    -0.3516940804403517,
    -0.3048679760843678,
    -0.37430899589362815,
    0.17969458551236142,
    -0.0015439927041580176,
    0.21658044379954466,
    0.02131014081422619,
    -0.16572165622129056,
    -0.09988252225949801,
    0.10443215331631894,
    0.09162785377252926,
    -0.2011184767208965,
    -0.39649626535651816,
    -0.016754968318372365,
    -0.260470412662019,
    -0.28778247050730354,
    -0.4253772092654826,
    -0.3519126770262439,
    0.16174820628337083,
    -0.10039962152512684,
    -0.12068521847559348,
    -0.06752891795110907,
    0.1355171389632231,
    -0.07348424643859139,
    -0.2521330010871031,
    -0.20614986919014353,
    -0.05485823800634515,
    -0.0761634707316804,
    -0.17633373907625122,
    0.1586252976922007,
    -0.18065479025910636,
    -0.3607104752248841,
    -0.27560023147024776,
    -0.4585830541443876,
    -0.16690554858185092,
    -0.26805359044913074,
    0.037151230875547225,
    -0.3096056008547155,
    0.13723898283417868,
    -0.2615917707892843,
    0.17110004147762953,
    -0.2800043392524457,
    0.16024852814209062,
    -0.2025837696959457,
    -0.20198643065167535,
    -0.2797609291383323,
    -0.2985909288259797,
    -0.10809498663609468,
    0.038347707831272566,
    -0.1215998449472453,
    -0.2056091157763061,
    -0.3571020047119538,
    0.01642964702068761,
    0.053597416514396756,
    -0.18137111436273057,
    0.13914179926319195,
    -0.033535505596431286,
    0.010758007791164259,
    -0.4167864092499064,
    -0.10975175560524936,
    -0.2722604003113248,
    -0.2983894374601139,
    0.19131396320553504,
    -0.4228591624006849,
    -0.2896482985641629,
    -0.3541577517305877,
    -0.05804588810006345,
    -0.12789853606148743,
    -0.24500473686566349,
    -0.5199024907437612,
    -0.33845531845385013,
    -0.05130177470321527,
    -0.11626679061612599,
    0.057513474346074484,
    -0.4322357989940358,
    0.09914518714012636,
    -0.05119877229986777,
    -0.32227481119039186,
    -0.3528944774023905,
    -0.196815853212793,
    0.1193759602118375,
    -0.18989381387556942,
    -0.040823247823663394,
    -0.5160128135458667,
    0.13419558409614388,
    0.24752017898312706,
    -0.31761184824332656,
    -0.3954831380564241,
    -0.08808315375501588,
    -0.5454516948931378,
    -0.3250297881877569,
    -0.2845149979510613,
    -0.06886393594971024,
    -0.45562066947110214,
    0.027855762930912686,
    -0.13204509555355293,
    -0.37590387234353667,
    -0.40768574924599826,
    0.032063665136602276,
    0.09408391633944245,
    -0.18807364684262076,
    0.11605532778722051,
    -0.028703974472369345,
    -0.1406587611229967,
    -0.06863357232125838,
    -0.24663373657750706,
    -0.3311640324668174,
    -0.29105205895178127,
    -0.002931918229253372,
    -0.2905220560612417,
    -0.23882661815760894,
    -0.3698924286282286,
    0.1724662103760455,
    -0.03324366669127037,
    -0.26035226989958044,
    -0.23142424134980732,
    -0.009235044069350218,
    -0.09265266968534383,
    -0.04708039996098182,
    -0.023868448406008894,
    -0.41614968651597306,
    -0.10165555391035111,
    -0.11495022724738793,
    -0.2640982899575641,
    -0.18527725713040588,
    -0.049206458438556505,
    -0.25928467682033557,
    -0.31345955131191106,
    -0.09630881283692293,
    0.11741295310484715,
    -0.2534718077991663,
    -0.06086963447237469,
    0.11625426933543202,
    -0.08516973048088394,
    -0.3221158633218751,
    -0.31330011422716353,
    0.2464249856712828,
    0.02389063099067565,
    -0.35408628441306145,
    -0.10437555722271873,
    0.2291351533465099,
    -0.26660794535489263,
    -0.20122518245129134,
    -0.4749157208932422,
    -0.029229185921262113,
    -0.2374464348144515,
    -0.07391352426526233,
    -0.1507795421109745,
    -0.10666415205589687,
    -0.34219527959989926,
    -0.12996943547146825,
    -0.015907972538851733,
    -0.20392912963901305,
    -0.10649796602523225,
    -0.5544298552829602,
    -0.42905998808548906,
    -0.23732241360225426,
    -0.16030672456768955,
    -0.5207366439172652,
    -0.14708117417114586,
    -0.24511873053853242,
    -0.22271660703608928,
    -0.07937890587160992,
    -0.06382281686749011,
    -0.16512285650615943,
    -0.41188809670626225,
    -0.5091125270613865,
    -0.20825595282881926,
    -0.2506149162125457,
    -0.24115763828547118,
    -0.19190356186713908,
    0.09194287026241488,
    -0.10273784511640274,
    0.008002015206748037,
    -0.39803695327822264,
    -0.34629784822988824,
    -0.26798981132999106,
    -0.11062583826177608,
    -0.140939085735633,
    0.024194803943351564,
    -0.4163015446442362,
    -0.029333657629876927,
    -0.34992941396827065,
    -0.2745945123745882,
    -0.33465111743657444,
    -0.5035157288355538,
    -0.18718649400349774,
    -0.37458234570892546,
    -0.3700603002718718,
    -0.3136240450982686,
    -0.11573498861896098,
    -0.3606690993663846,
    -0.07865705282174468,
    -0.37513338665652907,
    -0.40585056540851394,
    -0.3607160417853554,
    -0.18995322683500837,
    -0.09467682525830604,
    0.24331741724389777,
    -0.5994888048692372,
    0.17653039612357607,
    0.13508181167839456,
    -0.2405784893239613,
    -0.24216293187036386,
    -0.0074565113318450366,
    -0.01841378476947872,
    0.1349491070420399,
    -0.36165934889895196,
    -0.46315984545281097,
    -0.635485617353871,
    -0.30620113883410666,
    -0.06898248899417433,
    0.016582629128366874,
    -0.5256222251944689,
    -0.13806005419043893,
    -0.3659522791073453,
    -0.17307164776029602,
    -0.29828929463482484,
    -0.09182470499434098,
    -0.4412236713580545,
    -0.41268655487496253,
    -0.198089861101584,
    -0.007418152887462129,
    -0.27757893815290535,
    -0.41360002951886177,
    -0.2574174412482423,
    -0.37407098812499534,
    -0.6586424681953051,
    -0.45470276229162254,
    -0.05855161918687693,
    0.3357417765326194,
    -0.24730706029323463,
    -0.21668609432337443,
    -0.33333235619266377,
    -0.3359009319474938,
    -0.5414506510848442,
    -0.21046575480526714,
    -0.13692879460329913,
    -0.21864820409362715,
    -0.3531829743737554,
    -0.49555597679062313,
    -0.39358015487076226,
    0.04069717729147143,
    -0.03295229786692891,
    -0.2985164644072532,
    -0.45801299229019143,
    -0.2094334455323743,
    -0.08816610621855252,
    -0.4854113277022046,
    -0.24421484697144108,
    0.16744214771886545,
    -0.10916838049010538,
    -0.3400161571881061,
    0.04902680869579652,
    0.0875811141857851
  ],
  "episode_returns": [
    0.9741595882705693,
    1.849784101267617,
    -0.30965634302787703,
    0.21078980293204375,
    0.9962447710191635,
    -1.706637450425586,
    2.704597445076223,
    0.1788568512794667,
    2.8908648414279847,
    2.0519801564178457,
    2.274701625173036,
    4.184295213668621,
    4.214278567406298,
    -3.30223570707956,
    -0.1494872446194463,
    -2.0223592576910083,
    1.0326088214647495,
    0.37569922280921286,
    -0.4747184143494695,
    2.60874883598579,
    -2.2148862366876987,
    0.9254482664053822,
    1.4666549543589256,
    -2.3011232025246944,
    0.4477391233653982,
    -0.04999999999999988,
    0.826998719858455,
    1.17962296745989,
    -0.0860741889467897,
    0.5353380103563621,
    -2.5288030228607465,
    -2.5501025256888914,
    0.36995977250079193,
    0.31430117202150143,
    2.3828615546780982,
    -1.2018229761086754,
    0.15387200711566418,
    -0.5921438756281918,
    -1.232609761387593,
    2.2299027103452853,
    3.0656748518238954,
    -1.170483583201229,
    0.7215281526224081,
    0.9726949925944269,
    0.8162303658098102,
    3.959286783956295,
    -1.530585570043101,
    0.2375671347569906,
    -2.3259224645831664,
    -3.097627042153285,
    3.312783732123397,
    3.5033524103684863,
    -1.85,
    1.163715506158172,
    -0.8956773015975967,
    0.8869350154162459,
    2.266223206055336,
    2.993828920624439,
    4.62876795681067,
    -2.05,
    1.611966381149004,
    0.11204960351924281,
    -0.7973777057776334,
    -0.5345030840731205,
    2.1514531705465063,
    2.848006617263113,
    -1.7850977178503105,
    -0.49999999999999983,
    0.5854087102731796,
    -3.843304302269613,
    1.5976496771543771,
    1.5000000000000002,
    -0.04136951186054183,
    1.0157777607603753,
    1.356626206070469,
    -0.34999999999999987,
    -0.9169393902849132,
    0.9456503141655515,
    0.40634541729278323,
    1.7002984900355198,
    0.7337911397647028,
    -0.1080463889849147,
    2.4575698653224887,
    0.45611721272901395,
    1.6882491024474795,
    -1.9074285624962797,
    -2.277160173354718,
    1.9881733335546545,
    -0.5098157994311199,
    3.1143927594376684,
    -4.05,
    4.797694801165116,
    4.618914913053206,
    1.9050698439510245,
    -0.5103823005725934,
    1.85,
    -1.677870489433758,
    -2.2171508235782955,
    0.9213434912348892,
    2.142060203505299,
    1.5560766545750684,
    2.510279383132772,
    1.2509565606298518,
    -2.594246198419199,
    0.444179891976042,
    3.792264454873971,
    0.2760063254939178,
    1.9477587325489543,
    -0.6499999999999999,
    -3.05,
    1.6782948619284688,
    -0.7784173183133288,
    -0.7331887461429231,
    0.4938606457885468,
    -0.3217721786200525,
    -1.9798699408651457,
    1.030532213508956,
    2.6270521095122046,
    -3.738008359240097,
    4.187612255189992,
    -1.13438694370427,
    -0.826731242923197,
    -0.5198749838156175,
    0.3869631664992549,
    0.12590053324365014,
    1.713122847019327,
    -2.4694639893288683,
    -1.5531882254869216,
    1.4585317937543103,
    0.6554124991050214,
    -0.4724670988014067,
    4.209895526929541,
    -2.811327921714203,
    0.7587478798839045,
    -0.9602008400538687,
    3.6985541552025487,
    4.405159970173831,
    -1.0173834815590035,
    -1.4972668833124656,
    -0.9796513186304032,
    1.6092689465682968,
    -2.1368810683811685,
    2.0301565384238307,
    0.5401000259621156,
    3.45,
    1.2409432133246117,
    -1.2999999999999998,
    -2.8,
    -0.5093962509591881,
    0.7519568415138989,
    -0.032100638246699564,
    -0.6245140846785484,
    -0.10158715211049607,
    4.504771471140346,
    1.6711107275298187,
    -1.1869178277657868,
    -0.7353579721048926,
    1.6961375342427418,
    0.3849186105405204,
    1.7500000000000002,
    -0.6896198845667527,
    1.4538296893141485,
    -0.4458625460661053,
    1.5415663082957205,
    3.3343270836733074,
    -0.6085060092792547,
    4.746247337691196,
    -0.1775448991730596,
    -1.1625821760344706,
    -2.7,
    -1.6799470942908614,
    1.2579647847522657,
    1.7715481936298354,
    0.5025136316643469,
    1.0118968847248646,
    -1.0331081050267317,
    2.4288665941284346,
    1.2993539906931075,
    3.091209552286897,
    -0.5247490941522988,
    1.3160187222297155,
    2.8150463589881403,
    -1.1825165088936809,
    0.6929960147996377,
    1.324807274013564,
    -1.4469573074412738,
    -0.8116251728504585,
    1.6634639228879227,
    3.0617834506468737,
    0.6359679229710766,
    3.8851390782906567,
    1.4517461824050435,
    -0.6999999999999997,
    2.4028730618055487,
    1.2781675961948356,
    1.3623148151777018,
    1.443180583967783,
    3.6772279215878205,
    0.24287648982848867,
    2.819838280474129,
    1.8603478269300113,
    2.466454158023387,
    0.2293412300508736,
    -1.1788562923905574,
    1.2223672847696867,
    3.3869663931237177,
    -0.14999999999999994,
    0.7500000000000002,
    0.22191743109931705,
    1.6228062834804804,
    0.20000000000000012,
    1.5311906871145324,
    -0.1539425009882177,
    -0.44718338778502675,
    1.9791091992941636,
    2.1181889816657904,
    2.52783365586069,
    1.2500000000000002,
    -0.5563205320254491,
    4.219418230496443,
    0.9154331178318827,
    1.1141600674922834,
    -3.1,
    2.479670881485002,
    -0.28663071639022664,
    1.0270821410746116,
    -1.084952304937071,
    2.0500000000000003,
    3.9518504521569615,
    2.517297041433202,
    0.3594354787286178,
    2.1,
    0.9320939247678508,
    -0.1499999999999999,
    2.8246535160272703,
    1.9739346124658539,
    -3.2101040227632605,
    0.757262833919586,
    0.1194004045644601,
    -0.0678812601102872,
    4.570362127907629,
    -1.0244674076312033,
    3.7222025223838022,
    3.1528668064369905,
    2.1449090804167223,
    0.4776993262717502,
    3.9436521068374026,
    3.9383807083820943,
    3.6560153142103258,
    1.9247595300679483,
    2.691668008157243,
    0.11019611594522666,
    0.2359038115588824,
    -1.119524487103644,
    0.10224293360934111,
    2.090136756711285,
    -0.35548581386753586,
    -1.0499999999999998,
    3.384443078452567,
    -1.8432175155120334,
    -3.15,
    2.4517212651141067,
    2.184713493869728,
    2.1119495824308725,
    0.13158790493932415,
    -1.45,
    1.1193929728484122,
    0.5675059482186386,
    2.116688422922139,
    1.126440693881482,
    1.3019242602560859,
    -1.4,
    0.9838209481477388,
    1.6448522103016483,
    1.6778192170311477,
    1.106989707342212,
    0.7344270046223501,
    2.281491120517697,
    -0.504094572874211,
    2.698170932571972,
    2.8503503847003726,
    -3.85,
    -0.38625274698636947,
    2.9221007703752164,
    0.24557887018420127,
    4.057399891463074,
    4.469127213979773,
    2.837570762225414,
    -0.2663973359743719,
    1.869736429898219,
    1.2952416681280778,
    1.0116213876290931,
    2.0198270616564535,
    3.660379463306199,
    -1.4536787252063261,
    0.5329925110307779,
    1.3561369800387304,
    -0.7464147358749874,
    -1.8499999999999999,
    3.599511486046647,
    -0.2738387190101383,
    3.4121725275756543,
    -0.1079059422837289,
    0.7352513641512661,
    3.0097886380661327,
    -1.8078182317537634,
    2.8000000000000003,
    -1.347253765756757,
    0.019640933464613264,
    -1.0475285044422775,
    0.9548604079003086,
    -0.1464420978779547,
    -1.0098018531010946,
    1.4547478128834679,
    0.265161870973145,
    0.648557071948993,
    1.8651459918247517,
    1.5500000000000003,
    2.802538717086989,
    2.73936264269362,
    3.145868711931624,
    1.5853408910236082,
    0.5400163365420808,
    -3.75,
    0.7500000000000001,
    -0.07501621817989598,
    -0.015985174077069786,
    2.1500000000000004,
    3.1608868670409276,
    -2.781577254523671,
    2.7160591597245882,
    0.12920993024080202,
    -0.8400829822670643,
    -0.5008075658330124,
    2.9148788703501745,
    -3.187189900826427,
    -1.5655007441315594,
    1.7593485956963146,
    0.442797664008771,
    -0.14261881377230579,
    -0.4971940818718883,
    2.278327567481785,
    0.45035159819143,
    2.0777703233533478,
    -0.617203770612373,
    0.07089471999823316,
    0.6340145475034946,
    0.3221353424807563,
    2.1879497943433237,
    -2.6894558198301755,
    1.2410674055685662,
    1.5178761376997267,
    0.43594479765281446,
    -0.4836949288266767,
    3.2738198419214184,
    2.179790768836017,
    3.1425150965475313,
    0.3051965607594651,
    1.2000000000000002,
    0.8534621661109919,
    3.7863724604986064,
    1.9569856480354018,
    2.1237665193485533,
    -0.2333212207700187,
    0.6303428734274348,
    1.1117282160324526,
    1.9729435105893995,
    4.132878779422622,
    1.3023069462599797,
    1.2292021609533328,
    0.6806070567228685,
    2.528974858747338,
    1.2794603868595296,
    4.781693857674892,
    0.8282192321538572,
    3.0055984977588106,
    2.0836497308525974,
    -1.3657304474569885,
    -0.3750025811159425,
    1.1912494939685154,
    -4.05,
    2.51306188934063,
    -0.3813693101727288,
    -3.1791231886825257,
    2.8147941579330933,
    1.1318096519467404,
    -0.9897896774865205,
    0.5511288753258982,
    2.411356091334617,
    -2.2848104495644024,
    -0.4315189560490531,
    1.104640775215084,
    -2.6396910255869406,
    -1.2768017729293304,
    1.120518337759931,
    -0.30625645618885605,
    1.7062464063473861,
    1.1835255158160234,
    2.45,
    -0.7570678889061188,
    1.5000000000000002,
    -0.8499999999999999,
    3.0925626676050797,
    0.7022046880511379,
    0.44478276305656345,
    -1.4801758635047972,
    -0.8919600161006118,
    2.4105450770116117,
    0.8868846021344244,
    0.742999858261084,
    -1.5048091501558452,
    0.8664849255652549,
    2.3897628386177256,
    0.3000000000000001,
    1.9701535537826844,
    1.8911200860095632,
    -0.00838456012220834,
    2.1500000000000004,
    0.6264701587033537,
    0.3281950922660149,
    -2.127714194598855,
    -1.8245220983829453,
    -0.17071018093118528,
    -0.04427117409855663,
    -0.655809145144867,
    1.5534430684151217,
    1.258978237763421,
    0.03367427398033884,
    0.06401491214440702,
    -1.1867144921188846,
    1.118307472736555,
    -0.13457837971836623,
    -0.6499999999999999,
    -0.59941883702578,
    0.15000000000000013,
    3.393427192018496,
    -1.53114915554769,
    1.7348038142428708,
    3.849326103650835,
    -0.04999999999999985,
    2.288519185135216,
    1.5622188082896145,
    0.1500000000000001,
    -0.95,
    3.7076866062574627,
    -1.359250983621274,
    1.4617852045546507,
    2.95,
    1.3253627231926899,
    -0.26785466804634805,
    -1.55,
    -2.35,
    -0.10170640668286929,
    3.7353254220597867,
    2.45,
    -0.1499999999999999,
    -0.045061722274761684,
    1.1390947048279294,
    0.49624672505955636,
    2.0031839450258415,
    1.5952149867593393,
    -2.0,
    2.893403718710312,
    1.539636389500029,
    2.053676884293739,
    2.9855369177373277,
    2.4870666384948428,
    2.410658913013705,
    0.4164978788504441,
    2.424559621200933,
    1.0500000000000003,
    2.0906349713140524,
    2.5,
    2.429238174734769,
    1.5869360655071145,
    1.081179119937076,
    0.6500000000000002,
    -0.31162159060730743,
    2.45,
    -0.19811865748266044,
    2.5534449907031016,
    0.9503499000883336,
    1.05,
    3.3060908059373313,
    1.9890086089960817,
    -1.7943181770643155,
    1.85,
    1.1971876178234269,
    -2.35,
    0.9000000000000001,
    2.355509426128391,
    2.1312583496105955,
    0.3251688734594409,
    -0.4999999999999999,
    1.0228384463050157,
    1.5500000000000003,
    2.5960894807076933,
    -1.0999999999999999,
    -0.5616700441173349,
    1.4482383401970735,
    0.7175991436456796,
    0.30000000000000016,
    0.9791336447149724,
    1.3085636455785286,
    -0.12057978044558498,
    1.0500000000000003,
    2.16633993432787,
    0.9307945653261162,
    -0.7,
    3.1383040251500973,
    2.6830795221603267,
    1.0500000000000003,
    0.9667239667690163,
    1.4666254566144121,
    2.0,
    0.28457312147842995,
    2.077673310409089,
    2.95,
    2.6901639841072056,
    0.9000000000000001,
    0.44193876083596695,
    -0.04999999999999985,
    2.1500000000000004,
    1.8501671686091794,
    3.9710762389344874,
    -0.8499999999999999,
    0.9799383073853819,
    3.006014035585147,
    0.9504669322526168,
    -0.6919957149390819,
    1.6584825414940085,
    1.0209742548927,
    -1.15,
    -1.4608981743315586,
    0.6000000000000002,
    0.24827825765716705,
    1.0500000000000003,
    2.584988543837177,
    0.7928607604554326,
    -1.6355474844130575,
    2.206430290649421,
    -1.5999999999999999,
    1.7153280177627963,
    1.045906994839369,
    1.5326416737680835,
    -0.6499999999999999,
    -0.2382582574920962,
    0.6500000000000002,
    -1.25,
    -0.5445163128423328,
    0.4500000000000002,
    4.957029906907404,
    4.016501271884424,
    5.084780231315734,
    1.907294654332707,
    0.43820716719122677,
    0.8367027110001478,
    -0.5197168938737808,
    0.8825406633981898,
    -0.04999999999999985,
    0.10000000000000017,
    1.85,
    1.1351143074061403,
    1.4275270465577066,
    0.10000000000000014,
    0.8292344010494312,
    2.7649251688074252,
    0.0013636015492087816,
    0.8916248136043003,
    1.699594206627453,
    -0.29457757196524637,
    -0.04999999999999985,
    0.8000000000000002,
    0.2500000000000001,
    3.2500000000000004,
    -0.3250104418646457,
    0.9138943536271549,
    1.999896530668336,
    2.5365557524857967,
    -0.4999999999999999,
    -0.558509354871425,
    2.825303095885006,
    -1.8212942283001272,
    0.15000000000000013,
    2.3000000000000003,
    2.040247157024377,
    0.373638304589415,
    1.3500000000000003,
    1.47472708650624,
    -1.4174954205667178,
    -1.45,
    3.802091358916247,
    -2.85,
    0.15000000000000013,
    4.057993867317653,
    3.2103883896589256,
    -0.95,
    -1.740273842461397,
    1.2000000000000002,
    2.95,
    0.9500000000000002,
    6.1000000000000005,
    -0.9342200884143477,
    1.35,
    1.7584554982763474,
    1.9194362081254697,
    1.8167632983479038,
    -0.04999999999999985,
    0.80926002378957,
    1.949299948668639,
    3.1,
    2.6,
    2.0,
    3.4565431630595445,
    2.0022182834153512,
    0.6000000000000001,
    -0.6447413305596867,
    -1.7776060709715733,
    0.36951380665779265,
    1.8195950215270214,
    1.6174474595710822,
    2.1500000000000004,
    2.5356626947557164,
    -0.0016078585221993569,
    1.0500000000000003,
    1.6903780952500118,
    2.1923425578020335,
    2.7023179935163593,
    3.6,
    -0.04999999999999988,
    -1.5883536305195631,
    2.95,
    0.30000000000000016,
    0.7649290719187366,
    -0.5499999999999998,
    2.8000000000000003,
    1.1,
    -0.04999999999999985,
    2.4058584020643226,
    1.8722614317426793,
    -0.7999999999999998,
    2.752360475720367,
    1.7527789924261183,
    0.5877909643387537,
    -0.5253910365348045,
    2.0,
    1.8744061955558393,
    2.6708380520367725,
    1.9942252576333583,
    1.8558234287678907,
    3.9598131946298762,
    0.9292989704278161,
    2.0089351019059056,
    -0.14999999999999994,
    -2.4390597073814693,
    1.4000000000000001,
    2.571993280713244,
    2.491761577161536,
    -1.8499999999999999,
    1.1500000000000004,
    3.2459305684218918,
    0.3435775899566189,
    -0.32440820209424226,
    3.0679929816651024,
    2.126850572878024,
    1.5935248968418365,
    1.1,
    2.0316330269150167,
    0.9000000000000001,
    -0.27331035177786567,
    0.8812222408764232,
    -0.7999999999999998,
    -0.13782868406686077,
    -0.29999999999999993,
    -0.08607708748091664,
    2.0374712481750734,
    0.6235752943519947,
    1.857051380624241,
    1.731989502497423,
    0.14424970586278174,
    1.0785555809286025,
    0.30000000000000016,
    2.685708479993938,
    2.3000000000000003,
    0.6000000000000001,
    0.8766231937468763,
    3.1917657195153737,
    2.3000000000000003,
    2.9579900778871147,
    -0.5709284371755099,
    4.220735627803937,
    0.1950592739493703,
    0.13372132095167039,
    1.135178498676043,
    0.2469954430887703,
    4.0,
    1.0340963285355138,
    2.4835027203063067,
    1.4338105336604896,
    0.46379128338230435,
    2.8000000000000003,
    1.9394765910013603,
    0.9158950219210351,
    0.30000000000000016,
    1.488786001959408,
    -0.34043473367271354,
    -0.6999999999999998,
    3.0998368344506435,
    0.2500000000000002,
    0.9651278740473843,
    -0.11735940039682125,
    0.15000000000000013,
    2.6916507003816372,
    3.6653299316340315,
    2.323838868833163,
    0.43690302436076656,
    2.598532495954326,
    4.2,
    2.396446099717033,
    1.7139139983209435,
    -0.5499999999999998,
    1.6682956442265788,
    -1.2999999999999998,
    -0.6499999999999999,
    0.05772335677849283,
    1.0000000000000002,
    0.30000000000000016,
    0.6714870295829183,
    1.0764319360789245,
    -2.627250025484164,
    2.588263138901597,
    3.282025160939031,
    3.655054109112478,
    0.6147119181032905,
    2.307732592098426,
    1.5868065961171602,
    2.8220443745986232,
    -1.4,
    -0.5737883774861028,
    1.8281583764473965,
    -0.9257521993812856,
    -1.8830889725535562,
    2.0,
    3.9264412025429483,
    -0.27433244579738614,
    2.5397167933605522,
    0.8424266496042706,
    0.8666722976407244,
    -0.27588981114188943,
    2.7775092824214473,
    2.2,
    -0.6251161040189416,
    -2.660195845099628,
    1.7584350403085987,
    1.4000000000000001,
    -1.0105698932163676,
    1.477815539777429,
    -1.75,
    2.182784275600381,
    0.4147032861413827,
    2.8633506926521406,
    -0.38108228161658775,
    0.16056900811538133,
    0.02470695384551569,
    1.8819648354011709,
    0.30000000000000016,
    3.35,
    -1.55,
    -1.25,
    0.7017397885635108,
    1.4000000000000001,
    0.25920555371115506,
    0.5573656119754319,
    1.85,
    -0.040348668968539614,
    -0.39273567316078145,
    2.6569111877022,
    1.9270886305252357,
    0.703759501216718,
    0.7506985388891037,
    -1.8181207493539517,
    3.0279060425193993,
    1.1250434913783038,
    2.4528203103141335,
    0.10000000000000014,
    1.3930248331002724,
    -0.2046567057529158,
    0.6885501377537288,
    0.46053037903413896,
    0.11894618809404195,
    2.3051634560910084,
    -0.24267672659376482,
    -0.9819444396985332,
    2.9278510119664523,
    0.40966725868031506,
    -0.5225250451413606,
    -1.7999999999999998,
    1.3359240568997865,
    2.4920922137484913,
    1.5031063571777274,
    -0.34999999999999987,
    0.6249960339380115,
    0.947208801098822,
    -0.4499999999999999,
    -0.005814399022621597,
    1.2458390882000518,
    0.8912167776131106,
    -0.16343546176538748,
    -2.145462255595282,
    2.0093431003260234,
    2.149981886565363,
    0.3276390811272898,
    0.3624390652731705,
    1.3685804571510571,
    2.187346339925357,
    4.354816850276738,
    -0.8396017688050851,
    -0.11847166383745761,
    1.4935589879050757,
    -0.05346856802193009,
    0.44895949647230676,
    1.8508558264575898,
    1.495693234002308,
    0.3078212365864196,
    4.07283499858446,
    3.0212463493532207,
    2.167448350493819,
    -2.131915107644,
    0.978662256620568,
    2.9023860058543267,
    -0.8770321937521733,
    -0.6954002089525262,
    -0.10573036331369817,
    0.5950525153869007,
    2.5860809889527303,
    1.9638825733320528,
    -0.5799652019937189,
    0.5278588552374606,
    0.7613283112274889,
    2.1735422526651886,
    1.9718821195659044,
    0.25866734434617417,
    0.6693377649714722,
    2.812725154779483,
    -0.8241016922740994,
    -0.3109389917952051,
    -1.2651298672884304,
    -0.4166303788581869,
    1.9614090277185272,
    4.15,
    4.427376173657862,
    1.8577177581392046,
    -1.6094244923291239,
    3.5881935952054254,
    3.5358285597450814,
    4.279059993986875,
    0.6000000000000001,
    -1.7561226340871445,
    0.7500355201785353,
    2.5602227300344964,
    1.8385065720078835,
    1.4500000000000002,
    -0.624244904995382,
    -0.7779712217640458,
    -1.9610517413170248,
    2.2292403158565923,
    3.467068847166958,
    4.307158238675187,
    2.1,
    0.6289665731355281,
    0.8000000000000002,
    -0.4213622122574054,
    -0.12817522291808991,
    1.1962557946836792,
    -1.322898845855983,
    -0.053933469535703216,
    2.4107877679792575,
    -0.04999999999999988,
    0.7522040618735293,
    0.36513280033093287,
    1.0053867930874674,
    1.8000000000000003,
    0.1213216107095964,
    0.1500000000000001,
    0.7683421340271422,
    -3.0169145950581204,
    -4.05,
    3.676306177595002,
    2.0159892876597905,
    -1.3839070272179372,
    -0.7754005268372752,
    1.48368740652211,
    1.8843033326546494,
    0.8000000000000002,
    -0.6194634033551998,
    -1.2595607708206944,
    2.817911736424228,
    0.5020938293421937,
    -0.16705821806122373,
    -2.3096362664712005,
    -0.4167257509600881,
    -2.3803420715594314,
    -0.7198793490092534,
    0.07820460151333197,
    3.03478140253769,
    1.0256104832879869,
    2.417376978755363,
    3.506206422743781,
    1.1488518104155847,
    -0.9999999999999999,
    2.5446267057404457,
    4.628263092944093,
    1.4022544676327369,
    -3.55,
    2.2433265594069827,
    1.7622054544411319,
    0.298681497148676,
    1.3500000000000003,
    -1.304957907497597,
    0.24780022287934747,
    1.562650167727298,
    1.300527685061397,
    1.1589859332216903,
    -1.0330559575014049,
    2.030072215332437,
    1.0110851781774506,
    -0.8382999226713741,
    -0.5301933776673267,
    2.9964178619316093,
    1.3456833064439664,
    -1.0999999999999999,
    1.7203405873172606,
    2.7425883310650336,
    0.6579644758800587,
    0.8557962240661878,
    -0.2590554773144799,
    -0.3995772403483053,
    1.6341674395774564,
    -0.2586127406961939,
    0.7338970309575439,
    2.0,
    1.6398219725087477,
    -0.18459404339758306,
    0.9246118017994156,
    2.3284500844522613,
    -0.43438239313612714,
    2.012611488977805,
    1.9161615345860217,
    -0.04999999999999982,
    0.45383314693076143,
    -1.1759781589727925,
    -0.03347705750771146,
    -0.9275351554008029,
    1.0577585476187006,
    1.1078395527837892,
    1.7000000000000002,
    1.5047925493084802,
    1.0205114129578017,
    0.2643642850304896,
    1.5803278104091143,
    0.6487368038546361,
    -1.0883569461968154,
    0.4273179104822599,
    -0.7,
    0.6442021831208761,
    2.6699495134316913,
    1.5441765165632737,
    2.0156642874155044,
    1.0568656268153287,
    0.8814760420687712,
    1.549136705091986,
    1.1380357113295128,
    -1.15,
    1.7756182223050117,
    2.2955256136507587,
    1.1630909710419466,
    2.694901488893699,
    1.8865966915447625,
    1.1843941634853599,
    1.460957628361602,
    -0.5285290218081143,
    -1.6465295946534475,
    2.382809355371033,
    0.49005247999056634,
    2.1092723235946638,
    -0.31827109603137893,
    0.5586835960442559,
    1.2000000000000002,
    1.8000000000000003,
    0.6909904629023935,
    0.9852775972100061,
    -0.14999999999999988,
    2.954311062261616,
    4.990932362093666,
    -0.6499999999999999,
    1.6900748882374703,
    1.6572750485887588,
    -0.3453692758489225,
    -1.6217707422262053,
    0.8582921349168486,
    0.9305811158697341,
    0.4463310903873385,
    0.6682468347711035,
    0.1500000000000001,
    -0.1499999999999999,
    1.570563983694142,
    0.04868807765887745,
    -0.720211225816985,
    1.3000000000000003,
    0.9959558705122393,
    -0.7060861873597035,
    -0.2543704108496808,
    -2.35,
    2.1500000000000004,
    1.314416029232452,
    1.7785909862771958,
    0.03294028142567568,
    0.4490659501152127,
    3.472232476694515,
    -0.27234447833776865,
    0.7044167569332374,
    -0.43986405102023285,
    2.546884873222257,
    0.27901740921193036,
    -2.127516638716701,
    -0.8056509924011735,
    1.2500000000000002,
    -0.2999999999999999,
    0.6000000000000001,
    2.204468127642587,
    2.754267843044121,
    -0.3362411994183712,
    1.7851835242058758,
    1.3420672950580355,
    1.0159576551950575,
    0.13644975985511107,
    0.8873200172459144,
    0.9082181334649859,
    2.6997352803208616,
    0.3725492849343298,
    -0.44999999999999996,
    1.9544986285451118,
    4.4858187926141815,
    0.06290336999050555,
    2.334848942247543,
    -1.0999999999999999,
    -2.6999999999999997,
    -1.5527940489306795,
    2.637564609299424,
    1.1024294934838754,
    1.2996269078648834,
    0.4514727912460054,
    1.3864547255858408,
    2.6776348428049213,
    -0.5999999999999999,
    -1.25,
    0.10000000000000017,
    2.190918974847696,
    2.4753493723252906,
    1.55942567592086,
    4.639036934808505,
    3.055178156516712,
    0.9000000000000001,
    -0.9386208175763846,
    1.6342620876397163,
    3.3004953602871447,
    1.0043262795280277,
    1.8000000000000003,
    -1.6046050747174476,
    -0.39999999999999986,
    1.4134774158641523,
    -0.4607370825687731,
    -0.1165353402113184,
    2.1922454752722382,
    -1.1,
    3.638294487095144,
    1.6055065344932602,
    0.18352646962350055,
    1.2593017057063296,
    0.08615019872731128,
    0.10000000000000017,
    1.6043589985384588,
    2.8382741210356786,
    2.9125895384568903,
    4.354657246705367,
    0.36356166462734824,
    0.8996932558699259,
    0.5325071139923615,
    0.7106155083711438,
    0.1500000000000001,
    3.145087394608864,
    2.484459592547201,
    -1.687053272874984,
    0.8304137009774618,
    1.5053069563557464,
    0.13758642706851948,
    0.8542300849999137,
    1.2195562555427277,
    0.30000000000000016,
    -0.803390127103206,
    0.5229298516368358,
    0.4398965194599462,
    -2.4,
    1.260759508617725,
    4.077151008125534,
    3.1721600860044887,
    0.7481291175094482,
    1.8237538510639213,
    1.2169136066646735,
    2.9650097244772953,
    0.8343793904754762,
    1.6640361149493093,
    2.0009912773139718,
    2.34993218339291,
    3.0290824883846907,
    2.2468088528316614,
    2.402591700378654,
    2.093065411903379,
    2.0117593134321567,
    3.398214986891272,
    1.1630105276423857,
    1.8146986683442627,
    0.8134661079640435,
    1.0972333497448303,
    -1.1813303052943471,
    0.5503731404674495,
    3.299102310855221,
    2.5626262789143635,
    1.5554968773091076,
    -1.5097480827867202,
    -1.0063178097370922,
    1.3541978180574987,
    0.5970826859509651,
    0.4413856262549261,
    3.9097294887061955,
    0.6339544942807045,
    0.037325984780477134,
    -0.726286061792004,
    1.2947498084145337,
    1.6555149239037852,
    1.1688150295452386,
    2.7760925054235095,
    -1.1378624613777686,
    -0.3610986677929495,
    2.3754895034388377,
    1.4849624901350376,
    0.7148766362847254,
    -0.7464282926618853,
    2.292717055539745,
    -0.9999999999999999,
    0.3879403605163687,
    2.856613086080314,
    -1.9263343900122427,
    2.813026779192492,
    -1.7884712176918003,
    0.5857653761103419,
    0.09315700311103048,
    -0.009820829955658472,
    2.594292233237465,
    -1.130220876384139,
    -1.4680978761860788,
    -2.395793685708952,
    -1.0,
    1.7496987911089366,
    1.1308791565552903,
    1.7650346776961297,
    0.875461920067658,
    -0.032190799936578474,
    -0.507618124413518,
    1.9963091136753848,
    2.95,
    0.733446642037624,
    2.1455772795911052,
    3.780670625708566,
    0.45022823541597745,
    -0.27618224880515774,
    3.258402852589553,
    -0.2904974665414273,
    0.18334863621541048,
    -2.97996120157183,
    3.45,
    -1.25,
    -0.4088619604264216,
    3.229348383099394,
    0.979236224385505,
    0.5448420537873739,
    2.777304688677222,
    2.009184880620918,
    3.0120591788807127,
    -0.5708758366874501,
    -0.4994292331244207,
    2.386722374558797,
    0.7218681944107863,
    1.405748292339765,
    2.4861254397437142,
    1.5166378898081874,
    0.1742093322721572,
    -2.7522019634025128,
    2.461131911736521,
    1.2558399264676714,
    1.3219776196909059,
    -0.7157794522296392,
    2.155766908657123,
    0.13459786740311513,
    3.151572471343622,
    -1.0903362796184908,
    0.20659475527470061,
    3.52653296211198,
    2.523104801321906,
    0.05730292203581544,
    0.825282366935896,
    1.7362777164401584,
    0.9728743809291289,
    -0.3945481945893297,
    -1.0711513203661278,
    0.7546192139764969,
    1.0244374749568572,
    1.1509633836684434,
    0.059830895840552345,
    3.5954591896821784,
    3.59841082613709,
    -0.6312154531517938,
    0.9372123954582553,
    3.631797718243193,
    0.1500000000000001,
    1.5780577016977337,
    0.9021686302147465,
    -0.6497746997269672,
    -2.35,
    2.889205664870628,
    2.8557179223644313,
    2.919599752812379,
    1.7085128405693921,
    0.14304935100209107,
    0.13635258192938504,
    0.7663225207145816,
    0.2732936934650702,
    1.592203554929534,
    1.2186813940197925,
    -0.38535040153038436,
    0.08877240061873892,
    3.7751612497504157,
    1.7724806534785995,
    1.6568644096724954,
    0.47738748298499034,
    0.3375220750259243,
    1.0627762895379629,
    2.0058984751537032,
    0.12231764064399986,
    3.4418955539065896,
    3.3651339883419813,
    0.38045331190723075,
    5.273352708783598,
    1.8000998600824838,
    -1.1504773366311893,
    -0.8846102204705775,
    1.2766027678753,
    3.5202273029613362,
    3.619543355462265,
    1.249697557684438,
    0.6210600901727754,
    2.3960429735211797,
    0.6000000000000001,
    -0.07426528408935829,
    3.4669306703338996,
    -0.7158258457413591,
    -3.2703192239557497,
    3.385126869852879,
    0.3210412289842402,
    -0.3355587257799051,
    3.2772273349567547,
    1.4459772981017904,
    4.954094531179667,
    -1.8808528634531785,
    0.0698912112055168,
    1.1838733882755432,
    1.1812641892151894,
    3.377178303674851,
    -0.3957271773920252,
    0.7224226788244276,
    1.1848276609577024,
    3.1461138859404696,
    0.5503309334919849,
    1.5986047121722662,
    1.4701778524569435,
    0.16816445632157628,
    3.6404169273665374,
    -1.0390530057654515,
    0.22014106832461083,
    0.5197967427153638,
    -0.5703836270252051,
    -0.448850786105361,
    -0.7630543571815842,
    0.9318581671384639,
    2.077716092236439,
    1.5975504939204623,
    0.7643885819098821,
    -0.23971796250070765,
    3.3341278375164913,
    -3.004819515697128,
    -0.4999999999999999,
    0.2594369004781631,
    1.070030176560702,
    -2.389860480404438,
    1.3137860376764854,
    -0.0562238223389776,
    3.678273355998238,
    0.8833251890945356,
    3.0735124290984226,
    -0.2024630916570363,
    -1.1207578642885407,
    -0.2500879934089033,
    -2.1731026154190287,
    -2.021790664794564,
    3.8774948197695323,
    2.2351623425634566,
    4.289647135780212,
    2.3466532094118513,
    3.0038382971250446,
    1.2286168095512502,
    1.3617166453515441,
    0.7730421587745833,
    3.085990364686464,
    -0.20764080317298628,
    -1.3152701190699425,
    1.2158455461676514,
    5.337212730239603,
    0.2708664791125365,
    -0.4129178405092484,
    -0.22636778808881514,
    -2.9729833440990006,
    -3.0623145342840687,
    0.15038038874205095,
    1.0545868596408854,
    -1.8451453078762172,
    0.8605525459212178,
    -0.672016618349647,
    1.824196990396588,
    1.8682377691490974,
    1.300641299917396,
    3.8000319081952996,
    1.5766954004845677,
    2.8881319061678314,
    2.8587303111661253,
    -0.798542838760423,
    1.0195813612518339,
    0.9631876055138677,
    0.4222152116120075,
    3.6020152765742104,
    3.6553220304345473,
    3.5798866657975887,
    -0.1182219459707945,
    3.9567464801175993,
    -0.7433422358212765,
    0.08157748719627878,
    0.811069577507411,
    0.26675715653460735,
    1.7015318058245925,
    -0.6226693997831974,
    -1.8198643619317303,
    1.4329501667290112,
    1.7614011432520695,
    3.34147293686305,
    2.490494634205074,
    0.5771811189078763,
    1.1,
    -0.5162049467301504,
    -1.1153609309864903,
    1.3569844267600075,
    -1.5591270393504777,
    0.8974990888590576,
    1.7912393393699726,
    0.08756996180831134,
    1.8800264469421872,
    4.684518681098752,
    1.6782207973709669,
    0.5122173317933562,
    0.22038440722361624,
    1.9168809248612317,
    2.025399128754623,
    0.11874328187686878,
    0.976276169764321,
    0.5752365662513431,
    -0.23791172206849265,
    2.4360564441102284,
    -1.5040380343329685,
    -2.8013905843258193,
    0.7860137048356421,
    0.9619740564812271,
    0.2707627220119045,
    -1.0653066887517613,
    -0.3910431840326755,
    -1.6417512319263645,
    0.6500000000000001,
    -0.34999999999999987,
    0.363981819521827,
    0.5915407555399168,
    0.2738146393387896,
    2.1159918641444087,
    2.249355856034305,
    0.8128729140002282,
    1.6896650249125926,
    -1.0930186073687647,
    2.2289268241836515,
    0.45669381338963155,
    0.27849132559420664,
    0.1346316780925358,
    0.8352723654869603,
    0.7695984142966584,
    0.8583267031841916,
    2.832492118431409,
    3.2911025059321264,
    2.3138932791186932,
    4.817195213099587,
    -0.21972298686537184,
    -1.4501641678201969,
    1.016721528303749,
    3.33302248865553,
    1.1150433467797243,
    2.4957466839118805,
    1.074199629129088,
    2.5624970977303443,
    2.654755415128448,
    -1.1910451398152047,
    2.9177943117383616,
    -1.0592164721480666,
    0.5894522788096666,
    -0.19864234159304295,
    1.986044228971144,
    -0.34999999999999987,
    -0.3658185750462464,
    1.9012088414927588,
    4.112088338709143,
    -0.7731064602922118,
    0.7647956561649727,
    2.1986489484149003,
    0.8939450261284383,
    -2.3,
    2.902726869062983,
    -0.6924023184598491,
    2.154199871534917,
    -0.32867000413019687,
    4.938198217363103,
    -0.7750024723669848,
    0.826536733215308,
    -1.6509124289798953,
    -1.7426329709893227,
    -2.73143658228883,
    -1.2999999999999998,
    1.6892374124652425,
    0.7632189954546622,
    2.3655568893257546,
    2.8916244571727705,
    -0.5105712004748038,
    0.8022446960819026,
    3.7922292208106754,
    2.3407836016227366,
    1.1674804102069132,
    -0.06251876574626469,
    3.445163441626239,
    -0.7413555773268137,
    -0.3919749680697524,
    0.07305592937026842,
    -2.3710919756327047,
    0.25807607779322655,
    1.3921181718762035,
    2.2513523812484553,
    2.84356509144017,
    3.2660665446780413,
    0.6630706483140808,
    2.153361531593583,
    -0.08402707365330442,
    3.1915256691832767,
    0.16018359629385026,
    2.838157191045016,
    -0.8617161535886388,
    0.7259414322123836,
    0.21910787741726134,
    1.776390964788237,
    -0.47617037781449023,
    -2.1999999999999997,
    -0.44999999999999996,
    3.6887548327832507,
    -0.81216359813688,
    0.8755528555307833,
    0.5174939054111304,
    2.348760096356408,
    1.6780015296013073,
    -0.7992343409957715,
    1.7290447225751047,
    1.6335194371324966,
    -0.17618027821211124,
    2.9217096895483285,
    -0.4281030790826196,
    0.42513532942653964,
    0.2752437206841067,
    -1.25,
    3.35,
    -0.34999999999999987,
    -1.942450272179989,
    -0.9960654865539983,
    3.5000000000000004,
    -1.4440877661381253,
    1.1875522978210273,
    0.9608482486147105,
    1.5899320063789963,
    3.7399968795783938,
    1.259092229973849,
    -0.15292273853803368,
    1.2362925822937039,
    1.1690339169472637,
    -1.75,
    1.0940304254315834,
    -0.88993917574413,
    1.4886078694461378,
    0.9296249875972236,
    1.2690431123520285,
    -0.2529499033709539,
    -0.706785421816303,
    0.9051985833288665,
    1.613686726595413,
    1.658811862718672,
    -1.438832745138645,
    2.133494096685183,
    4.240154459548911,
    -0.5254484193343224,
    -0.4724739790316291,
    2.1575055913543815,
    1.6948581324336474,
    1.2643868370938134,
    2.0143114734005567,
    0.3962975306322548,
    1.9587752785109012,
    -0.5765977747103137,
    -1.6488049558534397,
    0.9244320665611929,
    -2.65,
    -0.7122814393230817,
    0.8682624404930501,
    3.890823015377765,
    -0.44999999999999996,
    -0.5145884559042881,
    0.8403768241603791,
    1.2751364646023609,
    2.1275561166448895,
    3.52567636882485,
    -0.9923746434384919,
    1.8911657147217353,
    2.7678557785407687,
    -0.6894126374011913,
    3.8221169311068888,
    0.30000000000000016,
    2.1333410764100287,
    1.200226859521314,
    1.4073317813587867,
    1.7763335325729714,
    1.9576659350381849,
    2.5795993112744497,
    0.5505537628808481,
    1.050545592719522,
    0.05865166036407671,
    -2.5,
    -0.028990364892612752,
    1.5706774549377713,
    1.6165433230194628,
    5.551115123125783e-17,
    1.2602690612113743,
    0.9080485413460757,
    -1.4,
    0.8674209238453551,
    -0.2928171368440873,
    3.2104801436811283,
    1.9556914371898038,
    0.2344298131924939,
    0.39364810779363485,
    0.9000000000000001,
    2.869566207710415,
    3.61313225711936,
    -0.5793063181986131,
    0.2014023512503731,
    2.1921686760486505,
    -1.25,
    1.4325031544407338,
    2.9290057232615565,
    0.8216276321884928,
    4.805272383145899,
    1.75,
    -0.06412334062714006,
    2.6968746465037072,
    0.4250100499083961,
    2.8951720925007915,
    4.952837872563934,
    0.7757454229218641,
    1.307715763446828,
    -1.5238703734638581,
    0.17038263417924354,
    0.9625320540289848,
    0.25000000000000017,
    1.8789279822944482,
    1.6158007404076924,
    0.4000000000000002,
    3.3634512468597313,
    1.3770177027720507,
    -1.485141232655301,
    -0.2933187406346509,
    4.911903388394891,
    1.4116154025098662,
    1.2518685678081474,
    0.5500722321790272,
    1.2754874617673657,
    -0.7370936596502708,
    1.743508155867635,
    -2.322657500182163,
    0.0020725929694241363,
    3.526288475092215,
    0.785679048788237,
    1.0325889537444324,
    1.7733993854851524,
    -0.030779450973648093,
    0.6662803001535068,
    2.462275893908192,
    0.3071741230157686,
    -1.6441219203962643,
    1.3081372851117037,
    1.0924532827551796,
    3.9564810290245105,
    1.5500000000000003,
    2.314654514447616,
    3.4127993455791934,
    1.8160932514522263,
    0.9058426997864348,
    2.843161156009777,
    0.7594843693785687,
    1.7547658303633522,
    3.5298537808497517,
    3.779000240336051,
    2.008684818542536,
    -0.7138284350527031,
    2.3412887834227303,
    1.870811455085475,
    0.7565869737972057,
    1.8828217204715703,
    0.6592792731002072,
    1.5332654255113423,
    3.201916178075437,
    3.1915981967186644,
    0.7364326060780105,
    0.7981302431793444,
    0.9000000000000001,
    0.6016327938173435,
    -1.0239822735232424,
    3.436134440016077,
    2.9053550358632947,
    2.4547765886783384,
    0.2876215402404838,
    1.6741865983504127,
    -0.6499999999999999,
    1.3296162254031871,
    3.081190317702573,
    0.35931760239318267,
    1.5932902155901785,
    3.4893301802657737,
    1.899210740090802,
    -1.4,
    1.1786852520962001,
    -1.697209938644172,
    1.9606938876667277,
    -2.6347130868686133,
    -1.360904551888848,
    -1.2296092684692517,
    0.113460725725404,
    -0.17385427492696803,
    0.8035589158082823,
    2.396732987359547,
    2.001165583753964,
    0.8860643069677564,
    1.2877869509972015,
    -0.5824756870750469,
    1.5533089163633085,
    2.8752614406874213,
    0.5348132240215755,
    0.9949193622221701,
    1.7689598359627208,
    1.9232507352485086,
    1.995705579854599,
    1.9935629949251434,
    0.791913729108328,
    2.377101183090378,
    0.8245253160758965,
    0.7005483718605652,
    1.2092493649903406,
    2.593268664687398,
    -0.4373734013279857,
    0.6886815404716184,
    3.1850533527553795,
    2.464533513549322,
    -0.7274493134378963,
    1.8218700323622983,
    2.8298542178490593,
    1.8621938156254423,
    -0.2784021072157576,
    -2.3501591547029026,
    -1.5999999999999999,
    -1.4996372509796074,
    -0.3178280669148485,
    1.8388190755513834,
    1.4730184827433637,
    -0.2999999999999999,
    1.3105968018504033,
    0.639561003526334,
    0.10000000000000014,
    0.24330040332657318,
    2.936023759296722,
    2.0201586704857055,
    1.35240478294325,
    0.25984114394069896,
    1.0500000000000003,
    2.2298096628767357,
    0.5702900737655024,
    0.3444122522448688,
    -0.7454957750326745,
    -0.03880844677023143,
    -0.024239091442648908,
    0.24028648304427314,
    -0.4634364959418135,
    2.2279445994840676,
    1.6308693989979692,
    -0.6499999999999999,
    1.0155381667428376,
    1.0680865684015723,
    2.3345900278992415,
    0.6325191026984402,
    4.585181184964285,
    -1.75,
    4.475841397161245,
    2.685295354714541,
    2.362448124999986,
    -1.2187062678713938,
    1.873512273659768,
    2.72474118724495,
    -0.37089410594942174,
    0.30000000000000016,
    -0.04999999999999988,
    1.4779699420517882,
    3.6581290886337006,
    2.26222717738011,
    0.6394870699268085,
    -1.25,
    -1.913519196162563,
    -1.15,
    -1.1103828777630746,
    1.36630115964497,
    3.6417563297201148,
    2.173238324375481,
    2.873174640390241,
    1.1271531628769775,
    2.595445790185431,
    2.1768721671915148,
    -2.1101521495170084,
    1.8543832985663051,
    -0.18809489833900034,
    3.300191725641951,
    -0.34999999999999987,
    -0.5635186671314866,
    0.5937510128871027,
    2.3905545882268013,
    0.07577713228791577,
    0.136290424015101,
    -0.9424416522022416,
    -2.015449426360545,
    -0.225491402944566,
    -1.5,
    1.4072121567329554,
    1.9798086995975475,
    0.9809818711370812,
    3.4704384323592308,
    -0.09954499679127904,
    -0.2541787759741613,
    3.0,
    1.6654169704412347,
    0.7994710991063956,
    -1.7794730998510362,
    -0.1337025644550086,
    2.1668094491841208,
    1.0040483039091637,
    -0.7999999999999999,
    3.1411981159513487,
    1.0504185973537317,
    1.71241572832607,
    2.481470542397095,
    2.4403479871465534,
    -0.09999999999999992,
    1.0403321664579126,
    2.5064850733620667,
    2.1164106342893545,
    0.6055793391173911,
    0.15000000000000013,
    0.3124155043362342,
    1.5511700446406935,
    1.5545013909064012,
    -0.48916974373506833,
    -0.7585432760141246,
    1.9762755717893175,
    0.4403443105262602,
    -0.644247390820895,
    0.527324906197139,
    1.0622434911084346,
    2.6514734292201423,
    0.050000000000000266,
    -0.3519064517464566,
    3.72144569614048,
    0.5884645297417606,
    -0.6195834609470314,
    0.28473271350007434,
    -0.7375195424562789,
    3.596540260825884,
    1.3000000000000003,
    0.4224150804532018,
    2.35266616136216,
    2.8636289856450534,
    -0.14643627229575162,
    0.7383447693958469,
    0.6558007216073056,
    1.3607518536032912,
    0.6747511946704414,
    -0.13801326308008033,
    3.0976461595747677,
    0.3069878321509729,
    2.5837364229204387,
    1.7907182192871791,
    -0.1841307641902018,
    0.5671264226798576,
    1.5648171518667595,
    3.872124995298459,
    -1.748824454983655,
    2.0533978292332757,
    1.7253864036405913,
    0.16238573783883137,
    -0.1306371538335478,
    2.9000000000000004,
    0.7196377421525167,
    -0.03337532122330489,
    0.30912091258404273,
    1.1009119726760241,
    0.6025797698869642,
    -2.25,
    -0.6148151761067879,
    0.4935865026791458,
    0.2500000000000002,
    -1.0280327865731673,
    1.5433805966245928,
    -1.500439527592947,
    1.4000000000000001,
    0.05503844316904083,
    1.8459281473723148,
    2.821817195174501,
    2.953210265556995,
    -0.5173587130319123,
    -0.7681815451267391,
    0.45243952667983595,
    1.5460545617744588,
    -3.1,
    0.19317238377734414,
    0.6656496072362929,
    -0.24479853278204972,
    -2.6999999999999997,
    1.9975361355842787,
    0.27144347430294813,
    1.5915422148821947,
    -0.736421403659365,
    3.061158400505464,
    0.9004794739089345,
    -0.04177035519317879,
    -0.14871796542499527,
    -0.39999999999999986,
    -0.18842689300588877,
    2.98766864763009,
    0.35434143580231386,
    1.0607832599453424,
    1.708088048919429,
    0.8387102469654621,
    1.5773662337163308,
    0.07939840391199876,
    -0.9729059357679182,
    1.1783668069022815,
    1.243189898668994,
    3.334378729123289,
    1.5395471803298928,
    3.781208254283179,
    1.6140465130921362,
    1.2500000000000002,
    1.6127792875312688,
    1.7982017176690002,
    1.2788534309911523,
    3.461043114145249,
    0.848436755542584,
    1.2688759917133354,
    0.6952884521441798,
    4.191973362284445,
    1.9812304354133508,
    0.8751634664259601,
    1.7467551647501334,
    -0.6074737310759821,
    0.018137728113663654,
    1.0501635452646918,
    0.4000000000000002,
    0.8114472406697082,
    -1.5631890961334605,
    4.591666279753197,
    -0.18094849351786102,
    3.5399527312310775,
    0.731255266068825,
    0.9000000000000001,
    0.23372876212711255,
    4.0596182745484315,
    0.874768945996494,
    -0.7742498090858279,
    1.9895573323536595,
    -1.45,
    0.7342345317086731,
    -0.2707443843740394,
    1.2639237090272568,
    1.0619457903168135,
    3.259315405266567,
    2.8394927822699394,
    2.5939977487920745,
    0.49814181949423475,
    0.3741553375510919,
    3.755964747550413,
    2.0733648287294444,
    1.7645037688593415,
    0.49965997520710076,
    -0.08315810411304508,
    2.100681014767229,
    1.7092224665031013,
    1.7812425077260885,
    1.517841623991989,
    1.5000000000000002,
    5.359310185236596,
    -0.1999999999999999,
    1.2000000000000002,
    -1.4,
    0.5214577884765892,
    1.4195049244227522,
    3.429977626164399,
    2.06082129882544,
    0.30000000000000027,
    -1.233596888276913,
    0.6458435112745816,
    2.111191532328439,
    1.4639512559938557,
    1.5126721262934344,
    -0.459747713454391,
    1.5907179956627977,
    0.8845325358740459,
    2.4525446363295864,
    0.39122341711596137,
    2.204218480644043,
    1.878224739392408,
    0.9000000000000001,
    2.3000000000000003,
    1.379106092762948,
    3.1,
    0.7017940332058235,
    1.1,
    2.6500000000000004,
    2.2500000000000004,
    -0.6798361933402083,
    0.7858322950659284,
    1.1102230246251565e-16,
    1.5847776683213695,
    1.5446292668700372,
    0.1321802055384615,
    1.4694861246486859,
    0.6068374680296806,
    1.5192103435798683,
    1.3593731505629592,
    1.1246558905073407,
    2.7504837614125006,
    0.6687248275604925,
    1.4000000000000001,
    0.68200753672821,
    1.2675430989076941,
    -0.3396094244004974,
    1.0500000000000003,
    0.8862865359391726,
    1.1315750002117775,
    1.707055243151727,
    1.8463246670503513,
    1.269501272447289,
    -0.8499999999999999,
    4.86969346093536,
    -2.55,
    -2.85,
    1.7000000000000002,
    0.9569014147025746,
    2.472757637020495,
    1.638431258474306,
    2.3000000000000003,
    3.101888025348109
  ],
  "baseline": 0.15234151390533335,
  "baseline_initialized": true,
  "baseline_decay": 0.95,
  "advantages_history": [
    -0.3921133769807089,
    -1.753134227455674,
    -1.2183154396812426,
    -0.9312194646489558,
    1.335660151628473,
    0.9133982476057616,
    0.4780766970668835,
    0.029291593418555723,
    -0.4333734618889986,
    -0.91034774571122,
    -1.4020738115073241,
    -1.5732681681459844,
    0.328248292543755,
    -2.0802800498494562,
    -0.8182734544174137,
    0.03336121221822294,
    0.46193203473385347,
    1.3531606855700447,
